{"learner":{"attributes":{"scikit_learn":"{\"_estimator_type\": \"classifier\"}"},"feature_names":[],"feature_types":[],"gradient_booster":{"model":{"cats":{"enc":[],"feature_segments":[],"sorted_idx":[]},"gbtree_model_param":{"num_parallel_tree":"1","num_trees":"101"},"iteration_indptr":[0,1,2,3,4,5,6,7,8,9,10,11,12,13,14,15,16,17,18,19,20,21,22,23,24,25,26,27,28,29,30,31,32,33,34,35,36,37,38,39,40,41,42,43,44,45,46,47,48,49,50,51,52,53,54,55,56,57,58,59,60,61,62,63,64,65,66,67,68,69,70,71,72,73,74,75,76,77,78,79,80,81,82,83,84,85,86,87,88,89,90,91,92,93,94,95,96,97,98,99,100,101],"tree_info":[0,0,0,0,0,0,0,0,0,0,0,0,0,0,0,0,0,0,0,0,0,0,0,0,0,0,0,0,0,0,0,0,0,0,0,0,0,0,0,0,0,0,0,0,0,0,0,0,0,0,0,0,0,0,0,0,0,0,0,0,0,0,0,0,0,0,0,0,0,0,0,0,0,0,0,0,0,0,0,0,0,0,0,0,0,0,0,0,0,0,0,0,0,0,0,0,0,0,0,0,0],"trees":[{"base_weights":[2.6007877E-3,-1.4702133E0,1.4254886E0,-9.5394075E-1,-1.8732265E0,6.142551E-1,1.7951705E0,9.615601E-2,-1.7235069E0,-3.399592E-1,-1.4197941E0,1.5512798E0,-3.3188263E-1,1.8200672E0,-2.1764684E-1,8.3167243E-1,-1.0578232E0,3.9308855E-1,-3.380739E-1,-1.1243611E-1,-3.3165234E-1,1.6614797E0,-2.5081208E-1,3.143219E-1,-1.9000915E-1,-2.7983165E-1,1.9668877E-1,-3.2189783E-1,2.6138565E-2,-2.70013E-1,2.7316898E-1,-2.9134735E-1,2.0037986E-1,-1.9000915E-1,2.930848E-1],"categories":[],"categories_nodes":[],"categories_segments":[],"categories_sizes":[],"default_left":[0,0,0,0,0,0,0,0,0,0,0,0,0,0,0,0,0,0,0,0,0,0,0,0,0,0,0,0,0,0,0,0,0,0,0],"id":0,"left_children":[1,3,5,7,9,11,13,15,17,-1,19,21,-1,23,-1,25,27,29,-1,31,-1,33,-1,-1,-1,-1,-1,-1,-1,-1,-1,-1,-1,-1,-1],"loss_changes":[1.61365E3,7.693707E1,1.1634851E2,1.3585802E2,8.178955E0,3.0016794E2,2.2825684E1,6.195702E1,5.2784546E1,0E0,3.116684E1,3.2824722E1,0E0,1.6104797E1,0E0,3.6868416E1,2.868914E1,2.9125492E1,0E0,3.101722E1,0E0,1.4775574E1,0E0,0E0,0E0,0E0,0E0,0E0,0E0,0E0,0E0,0E0,0E0,0E0,0E0],"parents":[2147483647,0,0,1,1,2,2,3,3,4,4,5,5,6,6,7,7,8,8,10,10,11,11,13,13,15,15,16,16,17,17,19,19,21,21],"right_children":[2,4,6,8,10,12,14,16,18,-1,20,22,-1,24,-1,26,28,30,-1,32,-1,34,-1,-1,-1,-1,-1,-1,-1,-1,-1,-1,-1,-1,-1],"split_conditions":[1.8E1,-5.8700714E-2,5E1,5.02E2,9E0,2.868042E1,6E1,4.2921467E1,1.2977356E1,-3.399592E-1,1E1,3.7E1,-3.3188263E-1,7.533273E-1,-2.1764684E-1,2.2440847E1,3.63E2,1.2382777E1,-3.380739E-1,1.142E3,-3.3165234E-1,9E0,-2.5081208E-1,3.143219E-1,-1.9000915E-1,-2.7983165E-1,1.9668877E-1,-3.2189783E-1,2.6138565E-2,-2.70013E-1,2.7316898E-1,-2.9134735E-1,2.0037986E-1,-1.9000915E-1,2.930848E-1],"split_indices":[4,3,4,0,4,5,1,5,5,0,4,1,0,3,0,5,0,5,0,0,0,1,0,0,0,0,0,0,0,0,0,0,0,0,0],"split_type":[0,0,0,0,0,0,0,0,0,0,0,0,0,0,0,0,0,0,0,0,0,0,0,0,0,0,0,0,0,0,0,0,0,0,0],"sum_hessian":[7.68E2,3.773629E2,3.906371E2,1.6691129E2,2.1045161E2,1.2312097E2,2.6751614E2,7.095968E1,9.5951614E1,1.6525E2,4.5201614E1,9.037097E1,3.275E1,2.6576614E2,1.75E0,4.3508064E1,2.7451612E1,1.0201612E1,8.575E1,1.3201612E1,3.2E1,8.762097E1,2.75E0,2.6451614E2,1.25E0,4.5E0,3.9008064E1,1.6E1,1.1451612E1,3.75E0,6.451613E0,5.75E0,7.451613E0,1.25E0,8.637097E1],"tree_param":{"num_deleted":"0","num_feature":"6","num_nodes":"35","size_leaf_vector":"1"}},{"base_weights":[-1.6592916E-2,1.2233642E0,-1.4832363E0,6.9785106E-1,1.5259929E0,6.1992943E-1,-1.6008186E0,1.3624134E0,-7.5268674E-1,1.5423119E0,-1.7287318E-1,1.255698E0,-2.464427E-1,-1.0749906E0,-2.835468E-1,-2.2731435E-1,1.4678607E0,4.169954E-1,-2.8395125E-1,2.773222E-1,1.1826506E0,-1.7088474E-1,2.6156166E-1,-2.9037464E-1,2.0063294E-1,2.5966877E-1,-1.9561085E-1,2.3139416E-1,-2.5635147E-1,2.5256625E-1,-3.081153E-1],"categories":[],"categories_nodes":[],"categories_segments":[],"categories_sizes":[],"default_left":[0,0,0,0,0,0,0,0,0,0,0,0,0,0,0,0,0,0,0,0,0,0,0,0,0,0,0,0,0,0,0],"id":1,"left_children":[1,3,5,7,9,11,13,15,17,19,-1,21,-1,23,-1,-1,25,27,-1,-1,29,-1,-1,-1,-1,-1,-1,-1,-1,-1,-1],"loss_changes":[1.3570907E3,6.324518E1,8.553375E1,1.4524957E2,1.2147644E1,2.6472427E1,7.975891E0,3.1174713E1,5.1290085E1,5.3485107E0,0E0,1.0740448E1,0E0,5.055455E1,0E0,0E0,1.48927E1,4.0810482E1,0E0,0E0,4.6318985E1,0E0,0E0,0E0,0E0,0E0,0E0,0E0,0E0,0E0,0E0],"parents":[2147483647,0,0,1,1,2,2,3,3,4,4,5,5,6,6,7,7,8,8,9,9,11,11,13,13,16,16,17,17,20,20],"right_children":[2,4,6,8,10,12,14,16,18,20,-1,22,-1,24,-1,-1,26,28,-1,-1,30,-1,-1,-1,-1,-1,-1,-1,-1,-1,-1],"split_conditions":[1E0,5E1,2.7E1,3.597266E1,7.533273E-1,2E0,1.66E2,1.1E1,-2.7866748E-1,5.7390896E1,-1.7287318E-1,1E1,-2.464427E-1,1.6E2,-2.835468E-1,-2.2731435E-1,4.1E1,3.67E2,-2.8395125E-1,2.773222E-1,-2.8060013E-2,-1.7088474E-1,2.6156166E-1,-2.9037464E-1,2.0063294E-1,2.5966877E-1,-1.9561085E-1,2.3139416E-1,-2.5635147E-1,2.5256625E-1,-3.081153E-1],"split_indices":[2,4,0,5,3,2,0,4,3,5,0,0,0,0,0,0,4,0,0,0,3,0,0,0,0,0,0,0,0,0,0],"split_type":[0,0,0,0,0,0,0,0,0,0,0,0,0,0,0,0,0,0,0,0,0,0,0,0,0,0,0,0,0,0,0],"sum_hessian":[7.442407E2,4.0337646E2,3.4086423E2,1.486143E2,2.5476218E2,1.782158E1,3.2304263E2,1.019615E2,4.6652798E1,2.5352339E2,1.2387853E0,1.3918808E1,3.9027731E0,3.367005E1,2.893726E2,3.406274E0,9.855523E1,2.062175E1,2.6031048E1,2.0481232E2,4.871107E1,1.2203084E0,1.26985E1,2.6555708E1,7.114344E0,9.709285E1,1.4623756E0,1.4050793E1,6.570958E0,4.4798855E1,3.9122179E0],"tree_param":{"num_deleted":"0","num_feature":"6","num_nodes":"31","size_leaf_vector":"1"}},{"base_weights":[-3.2927715E-3,1.0830503E0,-1.3134058E0,3.9587024E-1,1.2704314E0,5.293805E-1,-1.418238E0,9.7234476E-1,-2.7043325E-1,1.2893078E0,-1.9176465E-1,1.094957E0,-2.2091454E-1,-9.4640064E-1,-1.4699755E0,1.2097367E0,-2.3366524E-1,2.5164747E-1,1.0488045E0,-1.5723094E-1,2.3040079E-1,-2.585266E-1,1.7417692E-1,-2.6575005E-1,-1.1942197E0,2.2581413E-1,-1.8951859E-1,-2.4384661E-1,2.1416013E-1,2.2935511E-1,-2.602818E-1],"categories":[],"categories_nodes":[],"categories_segments":[],"categories_sizes":[],"default_left":[0,0,0,0,0,0,0,0,0,0,0,0,0,0,0,0,0,0,0,0,0,0,0,0,0,0,0,0,0,0,0],"id":2,"left_children":[1,3,5,7,9,11,13,15,-1,17,-1,19,-1,21,23,25,-1,-1,27,-1,-1,-1,-1,-1,29,-1,-1,-1,-1,-1,-1],"loss_changes":[1.01109094E3,4.95065E1,6.2963623E1,9.804374E1,1.5203278E1,2.0019337E1,6.053833E0,3.839203E1,0E0,1.1728119E1,0E0,8.5198765E0,0E0,3.813844E1,4.471863E0,1.702182E1,0E0,0E0,6.9287125E1,0E0,0E0,0E0,0E0,0E0,5.864022E1,0E0,0E0,0E0,0E0,0E0,0E0],"parents":[2147483647,0,0,1,1,2,2,3,3,4,4,5,5,6,6,7,7,9,9,11,11,13,13,14,14,15,15,18,18,24,24],"right_children":[2,4,6,8,10,12,14,16,-1,18,-1,20,-1,22,24,26,-1,-1,28,-1,-1,-1,-1,-1,30,-1,-1,-1,-1,-1,-1],"split_conditions":[1E0,3.1E1,2.7E1,-5.8700714E-2,7.533273E-1,2E0,1.66E2,6.2081043E1,-2.7043325E-1,3.4108982E1,-1.9176465E-1,1E1,-2.2091454E-1,1.6E2,6.767741E1,1.142E3,-2.3366524E-1,2.5164747E-1,5E1,-1.5723094E-1,2.3040079E-1,-2.585266E-1,1.7417692E-1,-2.6575005E-1,6.794307E1,2.2581413E-1,-1.8951859E-1,-2.4384661E-1,2.1416013E-1,2.2935511E-1,-2.602818E-1],"split_indices":[2,4,0,3,3,2,0,5,0,5,0,0,0,0,5,0,0,0,4,0,0,0,0,0,5,0,0,0,0,0,0],"split_type":[0,0,0,0,0,0,0,0,0,0,0,0,0,0,0,0,0,0,0,0,0,0,0,0,0,0,0,0,0,0,0],"sum_hessian":[7.084194E2,3.873789E2,3.2104047E2,8.366569E1,3.0371323E2,1.7062294E1,3.0397818E2,6.51728E1,1.8492887E1,3.017924E2,1.9208342E0,1.3323481E1,3.7388132E0,3.1944204E1,2.7203397E2,5.960535E1,5.567447E0,1.6877933E2,1.3301306E2,1.1889802E0,1.21345005E1,2.4985605E1,6.958599E0,2.0493825E2,6.709572E1,5.729805E1,2.3073015E0,9.651828E0,1.2336124E2,7.3281207E0,5.9767597E1],"tree_param":{"num_deleted":"0","num_feature":"6","num_nodes":"31","size_leaf_vector":"1"}},{"base_weights":[-3.709433E-3,9.7265613E-1,-1.1974156E0,1.0177997E0,-2.449691E-1,4.6063238E-1,-1.2942557E0,4.1593644E-1,1.1797613E0,9.745188E-1,-2.0153306E-1,-8.4733284E-1,-2.2975007E-1,8.543616E-1,-6.2981325E-1,1.1929802E0,-1.5611577E-1,-1.4566328E-1,2.0743878E-1,-2.3597719E-1,1.5311797E-1,1.7230771E-1,-1.9974303E-1,3.9065756E-2,-2.3218484E-1,1.7164557E-1,2.3201747E-1],"categories":[],"categories_nodes":[],"categories_segments":[],"categories_sizes":[],"default_left":[0,0,0,0,0,0,0,0,0,0,0,0,0,0,0,0,0,0,0,0,0,0,0,0,0,0,0],"id":3,"left_children":[1,3,5,7,-1,9,11,13,15,17,-1,19,-1,21,23,25,-1,-1,-1,-1,-1,-1,-1,-1,-1,-1,-1],"loss_changes":[7.6410266E2,4.0614777E1,4.7958282E1,3.4072845E1,0E0,1.5480563E1,5.0013123E0,3.5716896E1,8.802765E0,6.914365E0,0E0,2.9446854E1,0E0,1.8062893E1,1.4830145E1,7.2405396E0,0E0,0E0,0E0,0E0,0E0,0E0,0E0,0E0,0E0,0E0,0E0],"parents":[2147483647,0,0,1,1,2,2,3,3,5,5,6,6,7,7,8,8,9,9,11,11,13,13,14,14,15,15],"right_children":[2,4,6,8,-1,10,12,14,16,18,-1,20,-1,22,24,26,-1,-1,-1,-1,-1,-1,-1,-1,-1,-1,-1],"split_conditions":[1E0,6E1,2.7E1,3.1E1,-2.449691E-1,2E0,1.66E2,4.2921467E1,8.50912E1,1E1,-2.0153306E-1,1.6E2,-2.2975007E-1,1.142E3,3.67E2,8.9E1,-1.5611577E-1,-1.4566328E-1,2.0743878E-1,-2.3597719E-1,1.5311797E-1,1.7230771E-1,-1.9974303E-1,3.9065756E-2,-2.3218484E-1,1.7164557E-1,2.3201747E-1],"split_indices":[2,1,0,4,0,2,0,5,5,0,0,0,0,0,0,4,0,0,0,0,0,0,0,0,0,0,0],"split_type":[0,0,0,0,0,0,0,0,0,0,0,0,0,0,0,0,0,0,0,0,0,0,0,0,0,0,0],"sum_hessian":[6.5360504E2,3.5963486E2,2.939702E2,3.5357526E2,6.0596156E0,1.6014872E1,2.7795532E2,7.5728714E1,2.7784653E2,1.25011015E1,3.5137708E0,2.9395405E1,2.4855994E2,5.3487408E1,2.2241304E1,2.765297E2,1.3168458E0,1.1470346E0,1.1354067E1,2.2674213E1,6.721192E0,5.018654E1,3.30087E0,1.0521816E1,1.1719489E1,1.3159615E2,1.4493355E2],"tree_param":{"num_deleted":"0","num_feature":"6","num_nodes":"27","size_leaf_vector":"1"}},{"base_weights":[-6.0975743E-3,-9.253379E-1,8.624704E-1,-1.1330148E0,-3.8640466E-1,3.2864225E-1,1.1150109E0,-4.152537E-1,-2.2817963E-1,2.5460387E-2,-2.2478098E-1,9.6489584E-1,-2.363352E-1,1.1391097E0,-1.98341E-1,6.182169E-1,-2.2673811E-1,-2.2986616E-1,3.9116663E-1,1.0497857E0,-1.9415529E-1,1.15532E0,-1.5557958E-1,-1.875095E-1,1.724789E-1,1.6339742E-1,-9.0183415E-2,-1.7281836E-1,1.8762909E-1,2.1053316E-1,1.3821523E-1],"categories":[],"categories_nodes":[],"categories_segments":[],"categories_sizes":[],"default_left":[0,0,0,0,0,0,0,0,0,0,0,0,0,0,0,0,0,0,0,0,0,0,0,0,0,0,0,0,0,0,0],"id":4,"left_children":[1,3,5,7,9,11,13,15,-1,17,-1,19,-1,21,-1,23,-1,-1,25,27,-1,29,-1,-1,-1,-1,-1,-1,-1,-1,-1],"loss_changes":[4.8078464E2,3.2305252E1,4.137462E1,2.9883179E1,3.1717222E1,1.1110185E2,1.2820923E1,4.5609226E1,0E0,2.9774393E1,0E0,1.4403122E1,0E0,7.961914E0,0E0,1.6484907E1,0E0,0E0,2.479509E1,8.116234E0,0E0,4.4484253E0,0E0,0E0,0E0,0E0,0E0,0E0,0E0,0E0,0E0],"parents":[2147483647,0,0,1,1,2,2,3,3,4,4,5,5,6,6,7,7,9,9,11,11,13,13,15,15,18,18,19,19,21,21],"right_children":[2,4,6,8,10,12,14,16,-1,18,-1,20,-1,22,-1,24,-1,-1,26,28,-1,30,-1,-1,-1,-1,-1,-1,-1,-1,-1],"split_conditions":[1.8E1,8E0,5E1,2.45E2,1.1428697E-1,2.868042E1,6E1,-2.7866748E-1,-2.2817963E-1,2.1E1,-2.2478098E-1,3.7E1,-2.363352E-1,7.533273E-1,-1.98341E-1,-4.873012E-1,-2.2673811E-1,-2.2986616E-1,3E1,9E0,-1.9415529E-1,5.7390896E1,-1.5557958E-1,-1.875095E-1,1.724789E-1,1.6339742E-1,-9.0183415E-2,-1.7281836E-1,1.8762909E-1,2.1053316E-1,1.3821523E-1],"split_indices":[4,4,4,0,3,5,1,3,0,1,0,1,0,3,0,3,0,0,1,1,0,5,0,0,0,0,0,0,0,0,0],"split_type":[0,0,0,0,0,0,0,0,0,0,0,0,0,0,0,0,0,0,0,0,0,0,0,0,0,0,0,0,0,0,0],"sum_hessian":[6.0016846E2,2.9154712E2,3.0862134E2,2.0965472E2,8.189238E1,9.985211E1,2.0876924E2,4.659194E1,1.6306277E2,5.7393623E1,2.449876E1,7.3099655E1,2.6752453E1,2.0707483E2,1.69441E0,2.197448E1,2.4617464E1,1.1531245E1,4.5862377E1,7.074056E1,2.3590927E0,2.0588205E2,1.1927743E0,3.7396688E0,1.823481E1,2.8383705E1,1.7478672E1,1.1341175E0,6.9606445E1,1.668846E2,3.899746E1],"tree_param":{"num_deleted":"0","num_feature":"6","num_nodes":"31","size_leaf_vector":"1"}},{"base_weights":[-8.31548E-3,8.176423E-1,-1.0493426E0,8.574193E-1,-2.0926441E-1,-7.965616E-1,-2.1714799E-1,5.02353E-1,1.066249E0,-2.1804467E-1,-4.8727044E-1,1.0141755E0,-3.6361754E-1,1.8512107E-1,-1.4418152E-1,4.625416E-1,-1.0124781E0,-1.8748264E-1,1.8368858E-1,7.810229E-2,-2.2073635E-1,1.1956888E-1,-1.8616346E-1,-1.8892929E-2,-2.1776886E-1],"categories":[],"categories_nodes":[],"categories_segments":[],"categories_sizes":[],"default_left":[0,0,0,0,0,0,0,0,0,0,0,0,0,0,0,0,0,0,0,0,0,0,0,0,0],"id":5,"left_children":[1,3,5,7,-1,9,-1,11,13,-1,15,17,19,-1,-1,21,23,-1,-1,-1,-1,-1,-1,-1,-1],"loss_changes":[4.70205E2,2.5809021E1,1.2470917E1,2.16857E1,0E0,1.6455025E1,0E0,5.0397682E1,6.7501526E0,0E0,3.623711E1,1.0191048E1,3.304178E1,0E0,0E0,1.0385475E1,1.0801361E1,0E0,0E0,0E0,0E0,0E0,0E0,0E0,0E0],"parents":[2147483647,0,0,1,1,2,2,3,3,5,5,7,7,8,8,10,10,11,11,12,12,15,15,16,16],"right_children":[2,4,6,8,-1,10,-1,12,14,-1,16,18,20,-1,-1,22,24,-1,-1,-1,-1,-1,-1,-1,-1],"split_conditions":[1E0,6E1,2E0,5E1,-2.0926441E-1,2.6E1,-2.1714799E-1,2.868042E1,7.533273E-1,-2.1804467E-1,3E1,9E0,-2.7866748E-1,1.8512107E-1,-1.4418152E-1,2.1E1,-4.184604E-1,-1.8748264E-1,1.8368858E-1,7.810229E-2,-2.2073635E-1,1.1956888E-1,-1.8616346E-1,-1.8892929E-2,-2.1776886E-1],"split_indices":[2,1,2,4,0,1,0,5,3,0,1,1,3,0,0,4,3,0,0,0,0,0,0,0,0],"split_type":[0,0,0,0,0,0,0,0,0,0,0,0,0,0,0,0,0,0,0,0,0,0,0,0,0],"sum_hessian":[5.448511E2,3.0392755E2,2.4092354E2,2.986874E2,5.2401376E0,1.14385666E2,1.2653787E2,1.1187523E2,1.868122E2,4.368297E1,7.07027E1,7.020826E1,4.1666965E1,1.8566238E2,1.1498076E0,2.5217472E1,4.5485226E1,1.4625199E0,6.8745735E1,2.2376453E1,1.9290514E1,2.2355919E1,2.8615537E0,1.052605E1,3.495918E1],"tree_param":{"num_deleted":"0","num_feature":"6","num_nodes":"25","size_leaf_vector":"1"}},{"base_weights":[-1.3306438E-2,7.484744E-1,-9.872311E-1,5.1242024E-1,1.9027606E-1,4.2942452E-1,-1.8468347E-1,7.9095024E-1,-5.4753745E-1,1.4115982E-1,-1.592081E-1,8.8132674E-1,-2.4025553E-1,8.23967E-2,-2.6762533E-1,1.847114E-1,9.117194E-2,1.2749402E-1,-1.0645883E-1],"categories":[],"categories_nodes":[],"categories_segments":[],"categories_sizes":[],"default_left":[0,0,0,0,0,0,0,0,0,0,0,0,0,0,0,0,0,0,0],"id":6,"left_children":[1,3,5,7,-1,9,-1,11,13,-1,-1,15,-1,17,-1,-1,-1,-1,-1],"loss_changes":[3.667307E2,2.32753E1,2.8964264E1,5.066483E1,0E0,8.335064E0,0E0,2.8059128E1,2.3200205E1,0E0,0E0,8.451866E0,0E0,1.1301178E1,0E0,0E0,0E0,0E0,0E0],"parents":[2147483647,0,0,1,1,2,2,3,3,5,5,7,7,8,8,11,11,13,13],"right_children":[2,4,6,8,-1,10,-1,12,14,-1,-1,16,-1,18,-1,-1,-1,-1,-1],"split_conditions":[1E0,8.9E1,2.7E1,5.037378E1,1.9027606E-1,2E0,-1.8468347E-1,1.171E3,-7.294758E-2,1.4115982E-1,-1.592081E-1,2.300061E1,-2.4025553E-1,3.67E2,-2.6762533E-1,1.847114E-1,9.117194E-2,1.2749402E-1,-1.0645883E-1],"split_indices":[2,4,0,5,0,2,0,0,3,0,0,5,0,0,0,0,0,0,0],"split_type":[0,0,0,0,0,0,0,0,0,0,0,0,0,0,0,0,0,0,0],"sum_hessian":[4.9230548E2,2.7636826E2,2.1593723E2,1.6914445E2,1.0722379E2,1.30441475E1,2.0289308E2,1.3414764E2,3.4996815E1,1.0407622E1,2.636525E0,1.2941974E2,4.7279067E0,2.2182156E1,1.2814659E1,8.104349E1,4.8376255E1,1.1400159E1,1.0781996E1],"tree_param":{"num_deleted":"0","num_feature":"6","num_nodes":"19","size_leaf_vector":"1"}},{"base_weights":[-1.3279035E-2,-6.4523566E-1,8.0023825E-1,-9.540116E-1,-1.7917398E-1,5.5185574E-1,1.7994519E-1,-2.2839704E-1,-2.0237383E-1,1.1918965E-1,-9.077694E-1,6.803788E-1,-3.0494878E-1,6.350296E-1,-1.97917E-1,-5.1692218E-2,2.835377E-1,1.0998084E-1,-2.0907806E-1,8.562367E-1,-6.226704E-1,1.6292806E-1,-1.601117E-1,7.729504E-2,-1.3048899E-1,1.8131493E-1,8.831327E-2,-3.1131893E-1,1.4353512E-1],"categories":[],"categories_nodes":[],"categories_segments":[],"categories_sizes":[],"default_left":[0,0,0,0,0,0,0,0,0,0,0,0,0,0,0,0,0,0,0,0,0,0,0,0,0,0,0,0,0],"id":7,"left_children":[1,3,5,7,9,11,-1,13,-1,15,17,19,-1,21,-1,23,-1,-1,-1,25,27,-1,-1,-1,-1,-1,-1,-1,-1],"loss_changes":[2.303809E2,3.6121475E1,1.168367E1,2.4941666E1,2.2222965E1,3.1457794E1,0E0,3.0910475E1,0E0,1.9297201E1,1.5275137E1,2.2587448E1,0E0,1.0948712E1,0E0,2.4253292E1,0E0,0E0,0E0,5.3609734E0,2.2583677E1,0E0,0E0,0E0,0E0,0E0,0E0,0E0,0E0],"parents":[2147483647,0,0,1,1,2,2,3,3,4,4,5,5,7,7,9,9,10,10,11,11,13,13,15,15,19,19,20,20],"right_children":[2,4,6,8,10,12,-1,14,-1,16,18,20,-1,22,-1,24,-1,-1,-1,26,28,-1,-1,-1,-1,-1,-1,-1,-1],"split_conditions":[3.2E1,8E0,8.9E1,2.45E2,1.1428697E-1,1.171E3,1.7994519E-1,-2.7866748E-1,-2.0237383E-1,1.0922812E-1,1.4098597E1,5.5685375E1,-3.0494878E-1,4.2921467E1,-1.97917E-1,3.597266E1,2.835377E-1,1.0998084E-1,-2.0907806E-1,2.1784382E1,8.96E2,1.6292806E-1,-1.601117E-1,7.729504E-2,-1.3048899E-1,1.8131493E-1,8.831327E-2,-3.1131893E-1,1.4353512E-1],"split_indices":[4,4,4,0,3,0,0,3,0,3,5,5,0,5,0,5,0,0,0,5,0,0,0,0,0,0,0,0,0],"split_type":[0,0,0,0,0,0,0,0,0,0,0,0,0,0,0,0,0,0,0,0,0,0,0,0,0,0,0,0,0],"sum_hessian":[4.461137E2,2.5119063E2,1.9492307E2,1.5046039E2,1.0073024E2,9.9776855E1,9.514622E1,3.6621307E1,1.1383907E2,7.205837E1,2.8671867E1,9.524332E1,4.533538E0,1.9144083E1,1.7477224E1,6.572619E1,6.3321877E0,4.6625013E0,2.4009367E1,8.421999E1,1.1023328E1,1.6251646E1,2.8924372E0,3.8693504E1,2.7032684E1,5.129844E1,3.292155E1,5.924353E0,5.0989747E0],"tree_param":{"num_deleted":"0","num_feature":"6","num_nodes":"29","size_leaf_vector":"1"}},{"base_weights":[-1.3058241E-2,6.465212E-1,-8.91896E-1,6.8637234E-1,-1.9650127E-1,3.681066E-1,-9.8152363E-1,-1.2929372E-1,7.6995003E-1,-1.532164E-1,1.2514241E-1,-1.951499E-1,-7.847907E-1,6.1764485E-1,-2.834825E-1,6.0195774E-1,1.7703232E-1,-4.8294955E-1,-2.0425922E-1,-2.0972253E-1,1.6432868E-1,1.2104173E-1,-2.3492895E-1,-1.3161038E-1,5.885076E-2],"categories":[],"categories_nodes":[],"categories_segments":[],"categories_sizes":[],"default_left":[0,0,0,0,0,0,0,0,0,0,0,0,0,0,0,0,0,0,0,0,0,0,0,0,0],"id":8,"left_children":[1,3,5,7,-1,9,11,13,15,-1,-1,-1,17,19,-1,21,-1,23,-1,-1,-1,-1,-1,-1,-1],"loss_changes":[2.3449548E2,1.7325958E1,1.9947464E1,1.555513E1,0E0,6.284894E0,4.198517E0,2.6057335E1,8.547684E0,0E0,0E0,0E0,8.802994E0,1.096414E1,0E0,2.7823467E1,0E0,1.1018481E1,0E0,0E0,0E0,0E0,0E0,0E0,0E0],"parents":[2147483647,0,0,1,1,2,2,3,3,5,5,6,6,7,7,8,8,12,12,13,13,15,15,17,17],"right_children":[2,4,6,8,-1,10,12,14,16,-1,-1,-1,18,20,-1,22,-1,24,-1,-1,-1,-1,-1,-1,-1],"split_conditions":[1E0,6E1,2.7E1,1.2E1,-1.9650127E-1,1.3E1,5E0,3.294671E1,8.9E1,-1.532164E-1,1.2514241E-1,-1.951499E-1,1E1,3.3E1,-2.834825E-1,1.163E3,1.7703232E-1,9E0,-2.0425922E-1,-2.0972253E-1,1.6432868E-1,1.2104173E-1,-2.3492895E-1,-1.3161038E-1,5.885076E-2],"split_indices":[2,1,0,1,0,0,4,5,4,0,0,0,4,4,0,0,0,4,0,0,0,0,0,0,0],"split_type":[0,0,0,0,0,0,0,0,0,0,0,0,0,0,0,0,0,0,0,0,0,0,0,0,0],"sum_hessian":[4.025426E2,2.301079E2,1.724347E2,2.2571616E2,4.391752E0,1.1244878E1,1.6118982E2,2.0927727E1,2.0478842E2,2.1854208E0,9.059457E0,8.6331276E1,7.485854E1,1.4457994E1,6.469732E0,1.27387E2,7.740142E1,4.4355305E1,3.0503237E1,1.8654122E0,1.2592583E1,1.21518166E2,5.8688354E0,3.2990475E1,1.1364831E1],"tree_param":{"num_deleted":"0","num_feature":"6","num_nodes":"25","size_leaf_vector":"1"}},{"base_weights":[-1.4500468E-2,5.9051365E-1,-8.408138E-1,3.8871357E-1,1.6248962E-1,-5.5851644E-1,-1.9187494E-1,8.8750976E-1,-2.6826167E-2,-1.9191562E-1,-2.4195841E-1,-1.384974E-1,1.5911177E-1,5.5110466E-1,-6.087641E-1,5.5784845E-1,-8.316466E-1,1.1565129E-1,-3.4083888E-1,-2.1097171E-1,-3.260386E-3,-1.4108823E-1,1.3076577E-1,-3.6547796E-3,-1.9012117E-1],"categories":[],"categories_nodes":[],"categories_segments":[],"categories_sizes":[],"default_left":[0,0,0,0,0,0,0,0,0,0,0,0,0,0,0,0,0,0,0,0,0,0,0,0,0],"id":9,"left_children":[1,3,5,7,-1,9,-1,11,13,-1,15,-1,-1,17,19,21,23,-1,-1,-1,-1,-1,-1,-1,-1],"loss_changes":[1.8291827E2,1.4963036E1,1.16502075E1,2.8422182E1,0E0,1.3856428E1,0E0,5.2924347E0,2.5799768E1,0E0,2.4976477E1,0E0,0E0,1.3614302E1,1.4054516E1,7.1107697E0,6.8575974E0,0E0,0E0,0E0,0E0,0E0,0E0,0E0,0E0],"parents":[2147483647,0,0,1,1,2,2,3,3,5,5,7,7,8,8,10,10,13,13,14,14,15,15,16,16],"right_children":[2,4,6,8,-1,10,-1,12,14,-1,16,-1,-1,18,20,22,24,-1,-1,-1,-1,-1,-1,-1,-1],"split_conditions":[1E0,8.9E1,2E0,2.300061E1,1.6248962E-1,2.6E1,-1.9187494E-1,9E0,-2.7866748E-1,-1.9191562E-1,3E1,-1.384974E-1,1.5911177E-1,5.5E1,5E1,5E0,-4.184604E-1,1.1565129E-1,-3.4083888E-1,-2.1097171E-1,-3.260386E-3,-1.4108823E-1,1.3076577E-1,-3.6547796E-3,-1.9012117E-1],"split_indices":[2,4,2,5,0,1,0,4,3,0,1,0,0,4,4,4,3,0,0,0,0,0,0,0,0],"split_type":[0,0,0,0,0,0,0,0,0,0,0,0,0,0,0,0,0,0,0,0,0,0,0,0,0],"sum_hessian":[3.638937E2,2.1024261E2,1.536511E2,1.3601175E2,7.423087E1,7.8167175E1,7.548391E1,6.1297295E1,7.4714455E1,2.7193813E1,5.0973362E1,1.0711473E0,6.0226147E1,3.751287E1,3.720158E1,2.1655514E1,2.9317848E1,3.64534E1,1.0594723E0,1.7531067E1,1.9670515E1,2.4285715E0,1.9226944E1,7.808181E0,2.1509666E1],"tree_param":{"num_deleted":"0","num_feature":"6","num_nodes":"25","size_leaf_vector":"1"}},{"base_weights":[-1.9046424E-2,-5.3789717E-1,6.376339E-1,-3.4450103E-2,-7.7647114E-1,1.5277347E-1,3.5487705E-1,3.6767805E-1,-8.8570875E-1,1.6159097E-3,-9.03738E-1,-3.4071133E-1,4.9248233E-1,-1.6485453E-1,6.11351E-1,1.0609914E-1,-2.1541834E-1,7.0258826E-1,-1.8190515E-1,-1.0308988E0,-5.03734E-1,-1.9303614E-1,6.81581E-1,1.2567714E-1,-1.635293E-1,-1.414008E-1,1.6781E-1,-5.60426E-2,-1.943148E-1,2.257212E-1,-1.8229909E-1,1.2660679E-1,-1.7266944E-1],"categories":[],"categories_nodes":[],"categories_segments":[],"categories_sizes":[],"default_left":[0,0,0,0,0,0,0,0,0,0,0,0,0,0,0,0,0,0,0,0,0,0,0,0,0,0,0,0,0,0,0,0,0],"id":10,"left_children":[1,3,5,7,9,-1,11,13,15,17,19,-1,21,-1,23,-1,-1,25,-1,27,29,-1,31,-1,-1,-1,-1,-1,-1,-1,-1,-1,-1],"loss_changes":[1.1236689E2,2.2098679E1,1.0209686E1,2.0958244E1,1.2373314E1,0E0,2.3847355E1,1.4102257E1,1.1839343E1,1.4608039E1,4.9423676E0,0E0,2.1517757E1,0E0,7.6400576E0,0E0,0E0,5.8401628E0,0E0,5.594803E0,2.9972155E1,0E0,6.834114E0,0E0,0E0,0E0,0E0,0E0,0E0,0E0,0E0,0E0,0E0],"parents":[2147483647,0,0,1,1,2,2,3,3,4,4,6,6,7,7,8,8,9,9,10,10,12,12,14,14,17,17,19,19,20,20,22,22],"right_children":[2,4,6,8,10,-1,12,14,16,18,20,-1,22,-1,24,-1,-1,26,-1,28,30,-1,32,-1,-1,-1,-1,-1,-1,-1,-1,-1,-1],"split_conditions":[3.2E1,2.8998737E1,3.4108982E1,-5.8700714E-2,-5.7920927E-1,1.5277347E-1,1.4E1,4E0,2.1E1,3.67E2,1.171E3,-3.4071133E-1,4.9E1,-1.6485453E-1,4.7E1,1.0609914E-1,-2.1541834E-1,1.71E2,-1.8190515E-1,1E0,1.175E3,-1.9303614E-1,5.7E1,1.2567714E-1,-1.635293E-1,-1.414008E-1,1.6781E-1,-5.60426E-2,-1.943148E-1,2.257212E-1,-1.8229909E-1,1.2660679E-1,-1.7266944E-1],"split_indices":[4,5,5,3,3,0,1,4,0,0,0,0,4,0,1,0,0,0,0,4,0,0,1,0,0,0,0,0,0,0,0,0,0],"split_type":[0,0,0,0,0,0,0,0,0,0,0,0,0,0,0,0,0,0,0,0,0,0,0,0,0,0,0,0,0,0,0,0,0],"sum_hessian":[3.277867E2,1.832107E2,1.44576E2,5.927368E1,1.23937004E2,7.478151E1,6.97945E1,4.0642532E1,1.863115E1,1.7560787E1,1.0637621E2,3.1186302E0,6.667587E1,5.8292127E0,3.481332E1,3.5749483E0,1.5056201E1,1.0797039E1,6.763749E0,7.951976E1,2.6856457E1,6.4453454E0,6.0230526E1,3.2762035E1,2.0512848E0,1.3610944E0,9.435945E0,1.0900372E1,6.8619385E1,6.0116043E0,2.0844852E1,5.875113E1,1.4793955E0],"tree_param":{"num_deleted":"0","num_feature":"6","num_nodes":"33","size_leaf_vector":"1"}},{"base_weights":[-2.376411E-2,5.0596946E-1,-7.83089E-1,3.154794E-1,1.4789417E-1,-6.2488995E-2,-9.5600265E-1,4.2403755E-1,-2.3940927E-1,6.90364E-1,-6.379086E-1,-1.8781167E-1,-5.73914E-1,-2.1581428E-1,5.022564E-1,-1.3938563E-1,1.877295E-1,-1.8085036E-1,1.06360875E-1,1.9555931E-1,-1.8105696E-1,1.1998443E-1,1.8794265E-2],"categories":[],"categories_nodes":[],"categories_segments":[],"categories_sizes":[],"default_left":[0,0,0,0,0,0,0,0,0,0,0,0,0,0,0,0,0,0,0,0,0,0,0],"id":11,"left_children":[1,3,5,7,-1,9,11,13,-1,15,17,-1,19,-1,21,-1,-1,-1,-1,-1,-1,-1,-1],"loss_changes":[1.19316444E2,1.1673752E1,1.5127533E1,2.2146729E1,0E0,1.1122205E1,4.7089615E0,1.5089897E1,0E0,7.740999E0,8.321481E0,0E0,2.5146917E1,0E0,8.173262E0,0E0,0E0,0E0,0E0,0E0,0E0,0E0,0E0],"parents":[2147483647,0,0,1,1,2,2,3,3,5,5,6,6,7,7,9,9,10,10,12,12,14,14],"right_children":[2,4,6,8,-1,10,12,14,-1,16,18,-1,20,-1,22,-1,-1,-1,-1,-1,-1,-1,-1],"split_conditions":[1E0,8.9E1,1.66E2,1.171E3,1.4789417E-1,-4.184604E-1,1.171E3,1E1,-2.3940927E-1,-4.873012E-1,2E1,-1.8781167E-1,1.175E3,-2.1581428E-1,-5.8700714E-2,-1.3938563E-1,1.877295E-1,-1.8085036E-1,1.06360875E-1,1.9555931E-1,-1.8105696E-1,1.1998443E-1,1.8794265E-2],"split_indices":[2,4,0,0,0,3,0,1,0,3,4,0,0,0,3,0,0,0,0,0,0,0,0],"split_type":[0,0,0,0,0,0,0,0,0,0,0,0,0,0,0,0,0,0,0,0,0,0,0],"sum_hessian":[2.9464502E2,1.7375833E2,1.2088669E2,1.14735E2,5.9023335E1,2.365757E1,9.722912E1,1.0861447E2,6.1205277E0,1.0162134E1,1.3495436E1,6.948447E1,2.7744658E1,4.144444E0,1.04470024E2,1.9512937E0,8.21084E0,1.0243921E1,3.2515137E0,5.80895E0,2.1935707E1,6.874781E1,3.5722218E1],"tree_param":{"num_deleted":"0","num_feature":"6","num_nodes":"23","size_leaf_vector":"1"}},{"base_weights":[-2.552276E-2,4.5527107E-1,-7.594137E-1,5.906597E-1,-6.372891E-2,-6.0809884E-2,-9.3254757E-1,3.1434795E-1,1.3610563E-1,-2.6615366E-1,2.7021015E-1,6.179805E-1,-1.7277533E-1,-1.8487322E-1,-4.9513394E-1,6.069337E-1,-3.607579E-1,-6.7754084E-1,5.274923E-1,-1.2314663E-1,1.4308718E-1,1.7315961E-1,-1.7425308E-1,-1.466872E-1,1.1660925E-1,1.0393141E-1,-2.0808403E-1,-2.4056727E-1,4.9424347E-2,1.170566E-1,-1.7246024E-1],"categories":[],"categories_nodes":[],"categories_segments":[],"categories_sizes":[],"default_left":[0,0,0,0,0,0,0,0,0,0,0,0,0,0,0,0,0,0,0,0,0,0,0,0,0,0,0,0,0,0,0],"id":12,"left_children":[1,3,5,7,9,11,13,15,-1,-1,17,19,-1,-1,21,23,25,27,29,-1,-1,-1,-1,-1,-1,-1,-1,-1,-1,-1,-1],"loss_changes":[9.465506E1,1.1428585E1,1.2784576E1,7.0466576E0,1.7588367E1,1.490428E1,4.9879303E0,1.13776245E1,0E0,0E0,7.428117E0,4.565814E0,0E0,0E0,1.9509083E1,4.9529495E0,1.5421003E1,5.078817E0,6.3262186E0,0E0,0E0,0E0,0E0,0E0,0E0,0E0,0E0,0E0,0E0,0E0,0E0],"parents":[2147483647,0,0,1,1,2,2,3,3,4,4,5,5,6,6,7,7,10,10,11,11,14,14,15,15,16,16,17,17,18,18],"right_children":[2,4,6,8,10,12,14,16,-1,-1,18,20,-1,-1,22,24,26,28,30,-1,-1,-1,-1,-1,-1,-1,-1,-1,-1,-1,-1],"split_conditions":[1E0,5.7390896E1,1.66E2,5E1,2.1E1,2.8998737E1,6.767741E1,2.868042E1,1.3610563E-1,-2.6615366E-1,3.52E2,2.6E1,-1.7277533E-1,-1.8487322E-1,6.794307E1,9E0,2.45E2,8.422621E1,4.6E1,-1.2314663E-1,1.4308718E-1,1.7315961E-1,-1.7425308E-1,-1.466872E-1,1.1660925E-1,1.0393141E-1,-2.0808403E-1,-2.4056727E-1,4.9424347E-2,1.170566E-1,-1.7246024E-1],"split_indices":[2,5,0,4,1,5,5,5,0,0,0,1,0,0,5,4,0,5,1,0,0,0,0,0,0,0,0,0,0,0,0],"split_type":[0,0,0,0,0,0,0,0,0,0,0,0,0,0,0,0,0,0,0,0,0,0,0,0,0,0,0,0,0,0,0],"sum_hessian":[2.6627863E2,1.6111018E2,1.0516844E2,1.2766807E2,3.3442116E1,2.1155634E1,8.40128E1,5.5492043E1,7.2176025E1,5.444677E0,2.799744E1,1.2540159E1,8.615475E0,6.1617977E1,2.2394827E1,3.878423E1,1.6707811E1,5.628877E0,2.2368563E1,1.439922E0,1.1100238E1,5.533979E0,1.686085E1,1.3797776E0,3.7404453E1,7.9750576E0,8.732755E0,2.9487607E0,2.6801164E0,2.0796942E1,1.5716211E0],"tree_param":{"num_deleted":"0","num_feature":"6","num_nodes":"31","size_leaf_vector":"1"}},{"base_weights":[-2.9395336E-2,4.1401324E-1,-7.370523E-1,1.15442574E-1,1.5922697E-1,-6.542887E-2,-9.110273E-1,-2.541836E-1,2.9726145E-1,9.4799936E-2,-1.6740307E-1,-1.8176682E-1,-4.7247037E-1,3.7557203E-1,-1.9365971E-1,1.5654239E-1,-1.706791E-1,7.5605966E-2,-1.731802E-1],"categories":[],"categories_nodes":[],"categories_segments":[],"categories_sizes":[],"default_left":[0,0,0,0,0,0,0,0,0,0,0,0,0,0,0,0,0,0,0],"id":13,"left_children":[1,3,5,-1,7,9,11,-1,13,-1,-1,-1,15,17,-1,-1,-1,-1,-1],"loss_changes":[7.549039E1,9.7331505E0,1.0767475E1,0E0,1.7746748E1,1.194629E1,4.3949814E0,0E0,8.388081E0,0E0,0E0,0E0,1.6022846E1,6.746359E0,0E0,0E0,0E0,0E0,0E0],"parents":[2147483647,0,0,1,1,2,2,4,4,5,5,6,6,8,8,12,12,13,13],"right_children":[2,4,6,-1,8,10,12,-1,14,-1,-1,-1,16,18,-1,-1,-1,-1,-1],"split_conditions":[1E0,3.294671E1,1.66E2,1.15442574E-1,1.4E1,2.8998737E1,6.767741E1,-2.541836E-1,4.84273E-1,9.4799936E-2,-1.6740307E-1,-1.8176682E-1,6.794307E1,5.7E1,-1.9365971E-1,1.5654239E-1,-1.706791E-1,7.5605966E-2,-1.731802E-1],"split_indices":[2,5,0,0,1,5,5,0,3,0,0,0,5,1,0,0,0,0,0],"split_type":[0,0,0,0,0,0,0,0,0,0,0,0,0,0,0,0,0,0,0],"sum_hessian":[2.386104E2,1.4694902E2,9.166138E1,7.176659E1,7.518244E1,1.91417E1,7.251968E1,5.062346E0,7.0120094E1,1.1638386E1,7.5033154E0,5.2807274E1,1.9712402E1,6.717785E1,2.942246E0,5.2109833E0,1.4501418E1,6.475533E1,2.4225137E0],"tree_param":{"num_deleted":"0","num_feature":"6","num_nodes":"19","size_leaf_vector":"1"}},{"base_weights":[-3.9425742E-2,3.582862E-1,-7.102647E-1,2.2447376E-1,1.5712932E-1,-6.5437466E-2,-1.52243E-1,3.8772595E-1,-5.4456234E-1,8.279424E-2,-1.6226812E-1,1.3870944E-1,9.7391136E-2,-1.4111545E0,-1.4567165E-1,6.1803695E-2,-1.5378164E-1,-4.3000078E-1,2.5859065E-2,1.2528798E-1,-1.7931609E-1],"categories":[],"categories_nodes":[],"categories_segments":[],"categories_sizes":[],"default_left":[0,0,0,0,0,0,0,0,0,0,0,0,0,0,0,0,0,0,0,0,0],"id":14,"left_children":[1,3,5,7,-1,9,-1,11,13,-1,-1,-1,15,17,19,-1,-1,-1,-1,-1,-1],"loss_changes":[5.811638E1,1.0056364E1,9.349823E0,1.4244144E1,0E0,9.571954E0,0E0,1.1327054E1,6.7040462E0,0E0,0E0,0E0,1.5107584E1,1.10430355E1,1.2507768E1,0E0,0E0,0E0,0E0,0E0,0E0],"parents":[2147483647,0,0,1,1,2,2,3,3,5,5,7,7,8,8,12,12,13,13,14,14],"right_children":[2,4,6,8,-1,10,-1,12,14,-1,-1,-1,16,18,20,-1,-1,-1,-1,-1,-1],"split_conditions":[1E0,1.18E2,1.66E2,9.74E2,1.5712932E-1,2.8998737E1,-1.52243E-1,2.300061E1,1.136E3,8.279424E-2,-1.6226812E-1,1.3870944E-1,7.02986E-2,5.527408E1,1.171E3,6.1803695E-2,-1.5378164E-1,-4.3000078E-1,2.5859065E-2,1.2528798E-1,-1.7931609E-1],"split_indices":[2,4,0,0,0,5,0,5,0,0,0,0,3,5,0,0,0,0,0,0,0],"split_type":[0,0,0,0,0,0,0,0,0,0,0,0,0,0,0,0,0,0,0,0,0],"sum_hessian":[2.1587314E2,1.358182E2,8.005494E1,1.10775055E2,2.5043152E1,1.7767937E1,6.2287E1,9.178633E1,1.8988718E1,1.1232341E1,6.535596E0,3.6607334E1,5.5179E1,5.1854978E0,1.3803221E1,4.412702E1,1.1051979E1,2.6820278E0,2.50347E0,7.0924983E0,6.7107224E0],"tree_param":{"num_deleted":"0","num_feature":"6","num_nodes":"21","size_leaf_vector":"1"}},{"base_weights":[-2.9221103E-2,3.323251E-1,-6.666525E-1,1.4375424E-1,1.2430835E-1,-3.647364E-1,-1.7538291E-1,1.04920246E-1,-1.7314087E-1,-1.7015967E-1,-7.455409E-2,7.255734E-2,-1.55487E0,8.992632E-2,-1.1365619E-1,-4.804698E-2,1.2652142E-1,-5.080095E-1,-1.0671216E-1],"categories":[],"categories_nodes":[],"categories_segments":[],"categories_sizes":[],"default_left":[0,0,0,0,0,0,0,0,0,0,0,0,0,0,0,0,0,0,0],"id":15,"left_children":[1,3,5,7,-1,9,-1,-1,11,-1,13,15,17,-1,-1,-1,-1,-1,-1],"loss_changes":[4.6586872E1,9.497145E0,7.552391E0,1.3290435E1,0E0,7.475946E0,0E0,0E0,1.8331753E1,0E0,1.07468E1,1.1181907E1,8.882811E0,0E0,0E0,0E0,0E0,0E0,0E0],"parents":[2147483647,0,0,1,1,2,2,3,3,5,5,8,8,10,10,11,11,12,12],"right_children":[2,4,6,8,-1,10,-1,-1,12,-1,14,16,18,-1,-1,-1,-1,-1,-1],"split_conditions":[1E0,8.9E1,2E0,2.300061E1,1.2430835E-1,2.6E1,-1.7538291E-1,1.04920246E-1,5.6E1,-1.7015967E-1,3E1,5E1,5.527408E1,8.992632E-2,-1.1365619E-1,-4.804698E-2,1.2652142E-1,-5.080095E-1,-1.0671216E-1],"split_indices":[2,4,2,5,0,1,0,0,4,0,1,4,5,0,0,0,0,0,0],"split_type":[0,0,0,0,0,0,0,0,0,0,0,0,0,0,0,0,0,0,0],"sum_hessian":[2.0018526E2,1.2804039E2,7.2144875E1,8.7560356E1,4.0480026E1,4.027957E1,3.1865297E1,3.4894497E1,5.266586E1,1.1932381E1,2.8347193E1,4.5519157E1,7.1467004E0,1.4104383E1,1.4242808E1,3.013385E1,1.5385309E1,1.9656497E0,5.181051E0],"tree_param":{"num_deleted":"0","num_feature":"6","num_nodes":"19","size_leaf_vector":"1"}},{"base_weights":[-2.9796299E-2,2.9500604E-1,-6.3006914E-1,4.328233E-1,-1.8419378E-1,-2.4318928E-3,-8.231731E-1,4.6846512E-1,-1.5549423E-1,2.4625413E-1,-2.5832498E-1,7.8774124E-2,-1.5265189E-1,-1.7565982E-1,-2.964346E-1,4.984581E-1,-1.8320367E-1,-2.511048E-1,9.921524E-2,1.539842E-1,-1.6144639E-1,-6.692188E-2,9.5121324E-2],"categories":[],"categories_nodes":[],"categories_segments":[],"categories_sizes":[],"default_left":[0,0,0,0,0,0,0,0,0,0,0,0,0,0,0,0,0,0,0,0,0,0,0],"id":16,"left_children":[1,3,5,7,9,11,13,15,-1,17,-1,-1,-1,-1,19,21,-1,-1,-1,-1,-1,-1,-1],"loss_changes":[3.646161E1,8.098045E0,7.954193E0,4.950783E0,1.6255913E1,7.191801E0,5.0901985E0,4.8199863E0,0E0,1.3370198E1,0E0,0E0,0E0,0E0,1.2803615E1,4.932951E0,0E0,0E0,0E0,0E0,0E0,0E0,0E0],"parents":[2147483647,0,0,1,1,2,2,3,3,4,4,5,5,6,6,7,7,9,9,14,14,15,15],"right_children":[2,4,6,8,10,12,14,16,-1,18,-1,-1,-1,-1,20,22,-1,-1,-1,-1,-1,-1,-1],"split_conditions":[1E0,5.7390896E1,1.66E2,6E1,-2.8060013E-2,2.8998737E1,6.767741E1,7.533273E-1,-1.5549423E-1,2.1E1,-2.5832498E-1,7.8774124E-2,-1.5265189E-1,-1.7565982E-1,6.794307E1,1E1,-1.8320367E-1,-2.511048E-1,9.921524E-2,1.539842E-1,-1.6144639E-1,-6.692188E-2,9.5121324E-2],"split_indices":[2,5,0,1,3,5,5,3,0,1,0,0,0,0,5,1,0,0,0,0,0,0,0],"split_type":[0,0,0,0,0,0,0,0,0,0,0,0,0,0,0,0,0,0,0,0,0,0,0],"sum_hessian":[1.8505803E2,1.2041245E2,6.464557E1,9.3592224E1,2.6820229E1,1.5448054E1,4.9197517E1,9.180513E1,1.7870955E0,2.0863808E1,5.95642E0,1.0479428E1,4.9686265E0,3.4776867E1,1.442065E1,9.071441E1,1.0907229E0,2.8471127E0,1.8016695E1,4.926309E0,9.49434E0,5.1794724E0,8.5534935E1],"tree_param":{"num_deleted":"0","num_feature":"6","num_nodes":"23","size_leaf_vector":"1"}},{"base_weights":[-3.4626957E-2,2.5647825E-1,-6.057013E-1,1.504521E-1,1.6712873E-1,-3.053136E-1,-1.71644E-1,3.1098711E-1,-4.6903124E-1,-1.641708E-1,-3.5780277E-2,-6.577541E-1,3.718045E-1,-5.507791E-2,-2.4409293E-1,7.947298E-2,-9.66196E-2,-2.1204768E-1,1.021161E-1,1.05166376E-1,-2.0649757E-4,-2.3841481E-1,6.0882777E-2],"categories":[],"categories_nodes":[],"categories_segments":[],"categories_sizes":[],"default_left":[0,0,0,0,0,0,0,0,0,0,0,0,0,0,0,0,0,0,0,0,0,0,0],"id":17,"left_children":[1,3,5,7,-1,9,-1,11,13,-1,15,17,19,21,-1,-1,-1,-1,-1,-1,-1,-1,-1],"loss_changes":[2.8563242E1,8.55714E0,6.6272545E0,1.0137136E1,0E0,6.0514703E0,0E0,4.980895E0,8.282295E0,0E0,7.0087447E0,4.473962E0,6.9199476E0,9.171338E0,0E0,0E0,0E0,0E0,0E0,0E0,0E0,0E0,0E0],"parents":[2147483647,0,0,1,1,2,2,3,3,5,5,7,7,8,8,10,10,11,11,12,12,13,13],"right_children":[2,4,6,8,-1,10,-1,12,14,-1,16,18,20,22,-1,-1,-1,-1,-1,-1,-1,-1,-1],"split_conditions":[1E0,1.45E2,2E0,5.7390896E1,1.6712873E-1,2.6E1,-1.71644E-1,1E1,-2.8060013E-2,-1.641708E-1,3E1,9.7E1,2.7E1,2.2E1,-2.4409293E-1,7.947298E-2,-9.66196E-2,-2.1204768E-1,1.021161E-1,1.05166376E-1,-2.0649757E-4,-2.3841481E-1,6.0882777E-2],"split_indices":[2,4,2,5,0,1,0,1,3,0,1,4,1,1,0,0,0,0,0,0,0,0,0],"split_type":[0,0,0,0,0,0,0,0,0,0,0,0,0,0,0,0,0,0,0,0,0,0,0],"sum_hessian":[1.6988203E2,1.1288816E2,5.6993866E1,9.946656E1,1.3421598E1,3.3487522E1,2.3506344E1,7.939092E1,2.0075642E1,9.018815E0,2.4468708E1,4.1099296E0,7.528099E1,1.4758312E1,5.3173285E0,1.2638054E1,1.1830655E1,2.815507E0,1.2944226E0,4.5179134E1,3.0101856E1,2.904865E0,1.1853448E1],"tree_param":{"num_deleted":"0","num_feature":"6","num_nodes":"23","size_leaf_vector":"1"}},{"base_weights":[-3.5285745E-2,2.2616427E-1,-5.690449E-1,1.2794821E-1,1.640294E-1,4.7953814E-2,-1.3466237E-1,2.791806E-1,-5.552214E-1,1.1193356E-1,-9.155723E-2,8.210915E-2,-6.9572456E-2,-1.1368512E-1,-2.9198956E-1,-2.2512504E-1,2.7439946E-2,-1.2575582E-1,7.0601255E-2],"categories":[],"categories_nodes":[],"categories_segments":[],"categories_sizes":[],"default_left":[0,0,0,0,0,0,0,0,0,0,0,0,0,0,0,0,0,0,0],"id":18,"left_children":[1,3,5,7,-1,9,-1,11,13,-1,-1,-1,15,17,-1,-1,-1,-1,-1],"loss_changes":[2.2289036E1,7.6025534E0,7.111986E0,1.0050594E1,0E0,5.540474E0,0E0,5.576257E0,8.807849E0,0E0,0E0,0E0,8.754331E0,4.8417544E0,0E0,0E0,0E0,0E0,0E0],"parents":[2147483647,0,0,1,1,2,2,3,3,5,5,7,7,8,8,12,12,13,13],"right_children":[2,4,6,8,-1,10,-1,12,14,-1,-1,-1,16,18,-1,-1,-1,-1,-1],"split_conditions":[1E0,1.45E2,1.66E2,9.74E2,1.640294E-1,-4.184604E-1,-1.3466237E-1,-5.8700714E-2,2.7E1,1.1193356E-1,-9.155723E-2,8.210915E-2,3E1,1.9E1,-2.9198956E-1,-2.2512504E-1,2.7439946E-2,-1.2575582E-1,7.0601255E-2],"split_indices":[2,4,0,0,0,3,0,3,1,0,0,0,4,1,0,0,0,0,0],"split_type":[0,0,0,0,0,0,0,0,0,0,0,0,0,0,0,0,0,0,0],"sum_hessian":[1.5779704E2,1.06303116E2,5.149393E1,9.477856E1,1.1524562E1,1.3666962E1,3.782697E1,7.808444E1,1.6694109E1,6.640149E0,7.026812E0,4.9299282E1,2.8785162E1,1.2863497E1,3.8306127E0,3.7477329E0,2.503743E1,5.7168603E0,7.146636E0],"tree_param":{"num_deleted":"0","num_feature":"6","num_nodes":"19","size_leaf_vector":"1"}},{"base_weights":[-3.5132304E-2,1.0153983E-1,-1.6807748E-1,-4.3646816E-2,1.0146388E-1,5.3473134E-2,-1.9469972E-1,1.3906567E-1,-1.9042751E-1,5.508491E-3,1.5888856E-1],"categories":[],"categories_nodes":[],"categories_segments":[],"categories_sizes":[],"default_left":[0,0,0,0,0,0,0,0,0,0,0],"id":19,"left_children":[1,3,-1,5,-1,7,-1,9,-1,-1,-1],"loss_changes":[1.9398933E1,9.388234E0,0E0,1.0924977E1,0E0,9.624208E0,0E0,7.501282E0,0E0,0E0,0E0],"parents":[2147483647,0,0,1,1,3,3,5,5,7,7],"right_children":[2,4,-1,6,-1,8,-1,10,-1,-1,-1],"split_conditions":[2E0,8.9E1,-1.6807748E-1,1.175E3,1.0146388E-1,7.157957E1,-1.9469972E-1,1.136E3,-1.9042751E-1,5.508491E-3,1.5888856E-1],"split_indices":[2,4,0,0,0,5,0,0,0,0,0],"split_type":[0,0,0,0,0,0,0,0,0,0,0],"sum_hessian":[1.4799557E2,1.3012334E2,1.7872232E1,1.0116765E2,2.8955688E1,9.379862E1,7.369027E0,8.820995E1,5.5886693E0,7.861787E1,9.592084E0],"tree_param":{"num_deleted":"0","num_feature":"6","num_nodes":"11","size_leaf_vector":"1"}},{"base_weights":[-4.48823E-2,7.643736E-2,-1.657573E-1,3.450515E-1,-1.17380366E-1,4.7359806E-1,-1.1853933E-1,-3.7726674E-2,-1.549165E-1,1.1730025E-1,-1.21688275E-2,2.9105654E-2,-1.7591959E-1,1.1293966E-1,-6.741233E-2,-1.7589767E-2,9.7997904E-2],"categories":[],"categories_nodes":[],"categories_segments":[],"categories_sizes":[],"default_left":[0,0,0,0,0,0,0,0,0,0,0,0,0,0,0,0,0],"id":20,"left_children":[1,3,-1,5,7,9,-1,11,-1,-1,13,15,-1,-1,-1,-1,-1],"loss_changes":[1.5764646E1,6.527622E0,0E0,7.332116E0,4.5586905E0,4.8861847E0,0E0,4.497792E0,0E0,0E0,4.208929E0,4.6652236E0,0E0,0E0,0E0,0E0,0E0],"parents":[2147483647,0,0,1,1,3,3,4,4,5,5,7,7,10,10,11,11],"right_children":[2,4,-1,6,8,10,-1,12,-1,-1,14,16,-1,-1,-1,-1,-1],"split_conditions":[2E0,3.67E2,-1.657573E-1,6.2081043E1,4.84273E-1,-2.8060013E-2,-1.1853933E-1,7.399082E1,-1.549165E-1,1.1730025E-1,1.5135493E1,6.767741E1,-1.7591959E-1,1.1293966E-1,-6.741233E-2,-1.7589767E-2,9.7997904E-2],"split_indices":[2,0,0,5,3,3,0,5,0,0,5,5,0,0,0,0,0],"split_type":[0,0,0,0,0,0,0,0,0,0,0,0,0,0,0,0,0],"sum_hessian":[1.3890768E2,1.2360332E2,1.5304363E1,5.1478462E1,7.2124855E1,4.6290882E1,5.1875777E0,6.645921E1,5.6656423E0,3.1924284E1,1.4366598E1,6.3169697E1,3.2895176E0,4.9402347E0,9.426364E0,5.1489174E1,1.1680523E1],"tree_param":{"num_deleted":"0","num_feature":"6","num_nodes":"17","size_leaf_vector":"1"}},{"base_weights":[-3.6209654E-2,-2.8020942E-1,3.510584E-1,9.946506E-2,-5.943377E-1,9.0513706E-2,-2.5729987E-1,6.409489E-2,-3.6772478E-1,-3.4238806E-1,-2.0216225E-1,2.882E-1,-2.4731877E-1,-3.3463895E-1,1.2622955E-1,-1.3710472E-1,6.819393E-2,-2.2211573E-1,1.3059555E-1,9.145358E-2,-1.7806461E-1],"categories":[],"categories_nodes":[],"categories_segments":[],"categories_sizes":[],"default_left":[0,0,0,0,0,0,0,0,0,0,0,0,0,0,0,0,0,0,0,0,0],"id":21,"left_children":[1,3,5,7,9,-1,11,-1,13,15,-1,17,-1,-1,19,-1,-1,-1,-1,-1,-1],"loss_changes":[1.281738E1,9.973913E0,5.825668E0,5.089748E0,6.354208E0,0E0,8.564326E0,0E0,1.1848275E1,1.1674722E1,0E0,8.119403E0,0E0,0E0,6.382959E0,0E0,0E0,0E0,0E0,0E0,0E0],"parents":[2147483647,0,0,1,1,2,2,3,3,4,4,6,6,8,8,9,9,11,11,14,14],"right_children":[2,4,6,8,10,-1,12,-1,14,16,-1,18,-1,-1,20,-1,-1,-1,-1,-1,-1],"split_conditions":[5E1,2.8998737E1,5.7390896E1,2.7E1,1.2E1,9.0513706E-2,-2.8060013E-2,6.409489E-2,3.6E1,8E0,-2.0216225E-1,1.9E1,-2.4731877E-1,-3.3463895E-1,5.02E2,-1.3710472E-1,6.819393E-2,-2.2211573E-1,1.3059555E-1,9.145358E-2,-1.7806461E-1],"split_indices":[4,5,5,1,4,0,3,0,1,4,0,1,0,0,0,0,0,0,0,0,0],"split_type":[0,0,0,0,0,0,0,0,0,0,0,0,0,0,0,0,0,0,0,0,0],"sum_hessian":[1.3360223E2,8.213144E1,5.147079E1,3.7495487E1,4.463595E1,3.990843E1,1.156236E1,2.3716051E1,1.3779437E1,3.2352192E1,1.2283758E1,8.445198E0,3.1171618E0,2.5651858E0,1.12142515E1,1.9922792E1,1.2429399E1,1.5476755E0,6.8975224E0,8.708625E0,2.5056267E0],"tree_param":{"num_deleted":"0","num_feature":"6","num_nodes":"21","size_leaf_vector":"1"}},{"base_weights":[-3.4534544E-2,6.883798E-2,-1.6206758E-1,-1.877613E-3,1.559345E-1,2.9992878E-1,-2.3223495E-1,7.056797E-2,-1.01975136E-1,-1.791774E-1,-7.8730606E-2,3.5172895E-2,-6.1236333E-2],"categories":[],"categories_nodes":[],"categories_segments":[],"categories_sizes":[],"default_left":[0,0,0,0,0,0,0,0,0,0,0,0,0],"id":22,"left_children":[1,3,-1,5,-1,7,9,-1,-1,-1,11,-1,-1],"loss_changes":[1.1970046E1,6.810914E0,0E0,7.465473E0,0E0,4.942572E0,7.5407715E0,0E0,0E0,0E0,4.2313633E0,0E0,0E0],"parents":[2147483647,0,0,1,1,3,3,5,5,6,6,10,10],"right_children":[2,4,-1,6,-1,8,10,-1,-1,-1,12,-1,-1],"split_conditions":[2E0,1.45E2,-1.6206758E-1,3.67E2,1.559345E-1,6.2081043E1,9E0,7.056797E-2,-1.01975136E-1,-1.791774E-1,3.256602E1,3.5172895E-2,-6.1236333E-2],"split_indices":[2,4,0,0,0,5,4,0,0,0,5,0,0],"split_type":[0,0,0,0,0,0,0,0,0,0,0,0,0],"sum_hessian":[1.2511282E2,1.13220825E2,1.1891999E1,1.0537898E2,7.841844E0,4.5484592E1,5.9894386E1,4.088203E1,4.6025605E0,8.564953E0,5.1329433E1,2.5565481E1,2.5763954E1],"tree_param":{"num_deleted":"0","num_feature":"6","num_nodes":"13","size_leaf_vector":"1"}},{"base_weights":[-3.306259E-2,5.8708157E-2,-1.5942818E-1,-4.529398E-3,1.5256591E-1,6.123668E-2,-1.468917E-1,1.0437829E-1,-1.7919053E-1,2.5478626E-2,-1.6304189E-1],"categories":[],"categories_nodes":[],"categories_segments":[],"categories_sizes":[],"default_left":[0,0,0,0,0,0,0,0,0,0,0],"id":23,"left_children":[1,3,-1,5,-1,7,-1,9,-1,-1,-1],"loss_changes":[9.973352E0,5.8018003E0,0E0,5.8540573E0,0E0,4.740822E0,0E0,4.581791E0,0E0,0E0,0E0],"parents":[2147483647,0,0,1,1,3,3,5,5,7,7],"right_children":[2,4,-1,6,-1,8,-1,10,-1,-1,-1],"split_conditions":[2E0,1.45E2,-1.5942818E-1,1.175E3,1.5256591E-1,7.0108837E-1,-1.468917E-1,6E1,-1.7919053E-1,2.5478626E-2,-1.6304189E-1],"split_indices":[2,4,0,0,0,3,0,1,0,0,0],"split_type":[0,0,0,0,0,0,0,0,0,0,0],"sum_hessian":[1.1919337E2,1.09003624E2,1.0189742E1,1.0224071E2,6.762917E0,9.579571E1,6.4450016E0,9.3080894E1,2.714811E0,9.0138466E1,2.9424326E0],"tree_param":{"num_deleted":"0","num_feature":"6","num_nodes":"11","size_leaf_vector":"1"}},{"base_weights":[-3.334589E-2,-2.4300143E-1,4.9667552E-2,5.697939E-2,-5.094956E-1,1.05717205E-1,-1.55519E-1,-2.2885147E-1,-1.964073E-1,7.3727794E-2,-2.0198473E-1,-6.9495755E-1,6.504485E-2,-1.5689622E-1,4.8077445E-2,3.1336877E-2,-1.6870184E-1],"categories":[],"categories_nodes":[],"categories_segments":[],"categories_sizes":[],"default_left":[0,0,0,0,0,0,0,0,0,0,0,0,0,0,0,0,0],"id":24,"left_children":[1,3,-1,5,7,-1,9,11,-1,13,-1,15,-1,-1,-1,-1,-1],"loss_changes":[7.9362974E0,5.695026E0,0E0,4.1798115E0,6.4862804E0,0E0,6.114802E0,8.044198E0,0E0,4.7592154E0,0E0,4.2457056E0,0E0,0E0,0E0,0E0,0E0],"parents":[2147483647,0,0,1,1,3,3,4,4,6,6,7,7,9,9,11,11],"right_children":[2,4,-1,6,8,-1,10,12,-1,14,-1,16,-1,-1,-1,-1,-1],"split_conditions":[5E1,2.8998737E1,4.9667552E-2,-4.184604E-1,1.2E1,1.05717205E-1,2.300061E1,8E0,-1.964073E-1,1.1E1,-2.0198473E-1,1E0,6.504485E-2,-1.5689622E-1,4.8077445E-2,3.1336877E-2,-1.6870184E-1],"split_indices":[4,5,0,3,4,0,5,4,0,4,0,4,0,0,0,0,0],"split_type":[0,0,0,0,0,0,0,0,0,0,0,0,0,0,0,0,0],"sum_hessian":[1.1487103E2,6.9875305E1,4.4995728E1,3.3242203E1,3.6633102E1,8.605473E0,2.463673E1,2.6397972E1,1.023513E1,2.0894506E1,3.7422237E0,1.4875803E1,1.1522168E1,3.0232594E0,1.7871248E1,3.800289E0,1.1075514E1],"tree_param":{"num_deleted":"0","num_feature":"6","num_nodes":"17","size_leaf_vector":"1"}},{"base_weights":[-3.4030866E-2,4.2146582E-2,-1.5476263E-1,-1.4711011E-2,1.4784122E-1,4.1627314E-2,-2.0897216E-1,-1.7003779E-1,-1.422642E-2],"categories":[],"categories_nodes":[],"categories_segments":[],"categories_sizes":[],"default_left":[0,0,0,0,0,0,0,0,0],"id":25,"left_children":[1,3,-1,5,-1,-1,7,-1,-1],"loss_changes":[7.2837477E0,4.7530036E0,0E0,4.855066E0,0E0,0E0,5.370462E0,0E0,0E0],"parents":[2147483647,0,0,1,1,3,3,6,6],"right_children":[2,4,-1,6,-1,-1,8,-1,-1],"split_conditions":[2E0,1.45E2,-1.5476263E-1,3.67E2,1.4784122E-1,4.1627314E-2,9E0,-1.7003779E-1,-1.422642E-2],"split_indices":[2,4,0,0,0,0,4,0,0],"split_type":[0,0,0,0,0,0,0,0,0],"sum_hessian":[1.0820562E2,1.003779E2,7.8277173E0,9.4805374E1,5.572526E0,4.0601326E1,5.4204044E1,6.529535E0,4.767451E1],"tree_param":{"num_deleted":"0","num_feature":"6","num_nodes":"9","size_leaf_vector":"1"}},{"base_weights":[-3.275381E-2,5.8568786E-3,-1.5165032E-1],"categories":[],"categories_nodes":[],"categories_segments":[],"categories_sizes":[],"default_left":[0,0,0],"id":26,"left_children":[1,-1,-1],"loss_changes":[6.104423E0,0E0,0E0],"parents":[2147483647,0,0],"right_children":[2,-1,-1],"split_conditions":[2E0,5.8568786E-3,-1.5165032E-1],"split_indices":[2,0,0],"split_type":[0,0,0],"sum_hessian":[1.0514577E2,9.838689E1,6.758886E0],"tree_param":{"num_deleted":"0","num_feature":"6","num_nodes":"3","size_leaf_vector":"1"}},{"base_weights":[-2.9403506E-2,4.8775137E-3,-1.4824942E-1],"categories":[],"categories_nodes":[],"categories_segments":[],"categories_sizes":[],"default_left":[0,0,0],"id":27,"left_children":[1,-1,-1],"loss_changes":[5.1179757E0,0E0,0E0],"parents":[2147483647,0,0],"right_children":[2,-1,-1],"split_conditions":[2E0,4.8775137E-3,-1.4824942E-1],"split_indices":[2,0,0],"split_type":[0,0,0],"sum_hessian":[1.0398667E2,9.8163246E1,5.823423E0],"tree_param":{"num_deleted":"0","num_feature":"6","num_nodes":"3","size_leaf_vector":"1"}},{"base_weights":[-3.396805E-2,-8.4979326E-2,1.4380811E-1,-2.5334388E-2,-1.3790298E-1,-1.0294598E-1,1.1249791E-1,-2.2022005E-2,-2.8249916E-1,3.777068E-2,-6.0758185E-2],"categories":[],"categories_nodes":[],"categories_segments":[],"categories_sizes":[],"default_left":[0,0,0,0,0,0,0,0,0,0,0],"id":28,"left_children":[1,3,-1,5,-1,7,-1,9,-1,-1,-1],"loss_changes":[4.6814075E0,4.218408E0,0E0,4.946879E0,0E0,1.0430172E1,0E0,6.5839562E0,0E0,0E0,0E0],"parents":[2147483647,0,0,1,1,3,3,5,5,7,7],"right_children":[2,4,-1,6,-1,8,-1,10,-1,-1,-1],"split_conditions":[1.45E2,1.175E3,1.4380811E-1,1.136E3,-1.3790298E-1,1.007E3,1.1249791E-1,-5.8700714E-2,-2.8249916E-1,3.777068E-2,-6.0758185E-2],"split_indices":[4,0,0,0,0,0,0,3,0,0,0],"split_type":[0,0,0,0,0,0,0,0,0,0,0],"sum_hessian":[1.022918E2,9.750943E1,4.782373E0,9.101945E1,6.489985E0,8.24969E1,8.522545E0,7.936492E1,3.131979E0,4.610229E1,3.3262634E1],"tree_param":{"num_deleted":"0","num_feature":"6","num_nodes":"11","size_leaf_vector":"1"}},{"base_weights":[-2.210758E-2,-1.274152E-1,6.896583E-2,-5.7732724E-2,-1.8068834E-1,-1.5512905E-1,1.3645534E-1,2.5413272E-1,-3.9640078E-1,-1.17341794E-1,7.802823E-2,-3.7596956E-2,-2.4968223E-1],"categories":[],"categories_nodes":[],"categories_segments":[],"categories_sizes":[],"default_left":[0,0,0,0,0,0,0,0,0,0,0,0,0],"id":29,"left_children":[1,3,-1,5,-1,7,-1,9,11,-1,-1,-1,-1],"loss_changes":[4.603149E0,5.26166E0,0E0,6.5850034E0,0E0,7.0565042E0,0E0,5.395072E0,8.074391E0,0E0,0E0,0E0,0E0],"parents":[2147483647,0,0,1,1,3,3,5,5,7,7,8,8],"right_children":[2,4,-1,6,-1,8,-1,10,12,-1,-1,-1,-1],"split_conditions":[8.9E1,1.175E3,6.896583E-2,1.136E3,-1.8068834E-1,2.300061E1,1.3645534E-1,1.3E1,5.6E1,-1.17341794E-1,7.802823E-2,-3.7596956E-2,-2.4968223E-1],"split_indices":[4,0,0,0,0,5,0,4,4,0,0,0,0],"split_type":[0,0,0,0,0,0,0,0,0,0,0,0,0],"sum_hessian":[1.0060741E2,8.120538E1,1.9402021E1,7.652845E1,4.676938E0,6.944292E1,7.085527E0,2.573542E1,4.37075E1,4.130045E0,2.1605375E1,3.8520554E1,5.186945E0],"tree_param":{"num_deleted":"0","num_feature":"6","num_nodes":"13","size_leaf_vector":"1"}},{"base_weights":[-2.1170046E-2],"categories":[],"categories_nodes":[],"categories_segments":[],"categories_sizes":[],"default_left":[0],"id":30,"left_children":[-1],"loss_changes":[0E0],"parents":[2147483647],"right_children":[-1],"split_conditions":[-3.620252E-3],"split_indices":[0],"split_type":[0],"sum_hessian":[9.730368E1],"tree_param":{"num_deleted":"0","num_feature":"6","num_nodes":"1","size_leaf_vector":"1"}},{"base_weights":[-1.7759362E-2,-1.9730249E-1,4.0152073E-2,-1.3031545E-1,-2.2462052E-1,1.0095199E-2,-9.6134536E-2],"categories":[],"categories_nodes":[],"categories_segments":[],"categories_sizes":[],"default_left":[0,0,0,0,0,0,0],"id":31,"left_children":[1,3,-1,5,-1,-1,-1],"loss_changes":[4.5099783E0,4.171488E0,0E0,4.604221E0,0E0,0E0,0E0],"parents":[2147483647,0,0,1,1,3,3],"right_children":[2,4,-1,6,-1,-1,-1],"split_conditions":[5E1,4.1E1,4.0152073E-2,3E1,-2.2462052E-1,1.0095199E-2,-9.6134536E-2],"split_indices":[4,4,0,1,0,0,0],"split_type":[0,0,0,0,0,0,0],"sum_hessian":[9.743844E1,5.7079254E1,4.0359188E1,5.4901207E1,2.1780498E0,3.8766754E1,1.613445E1],"tree_param":{"num_deleted":"0","num_feature":"6","num_nodes":"7","size_leaf_vector":"1"}},{"base_weights":[-1.7688366E-2],"categories":[],"categories_nodes":[],"categories_segments":[],"categories_sizes":[],"default_left":[0],"id":32,"left_children":[-1],"loss_changes":[0E0],"parents":[2147483647],"right_children":[-1],"split_conditions":[-3.024856E-3],"split_indices":[0],"split_type":[0],"sum_hessian":[9.566905E1],"tree_param":{"num_deleted":"0","num_feature":"6","num_nodes":"1","size_leaf_vector":"1"}},{"base_weights":[-1.4897654E-2],"categories":[],"categories_nodes":[],"categories_segments":[],"categories_sizes":[],"default_left":[0],"id":33,"left_children":[-1],"loss_changes":[0E0],"parents":[2147483647],"right_children":[-1],"split_conditions":[-2.5476215E-3],"split_indices":[0],"split_type":[0],"sum_hessian":[9.5787E1],"tree_param":{"num_deleted":"0","num_feature":"6","num_nodes":"1","size_leaf_vector":"1"}},{"base_weights":[-9.873732E-3],"categories":[],"categories_nodes":[],"categories_segments":[],"categories_sizes":[],"default_left":[0],"id":34,"left_children":[-1],"loss_changes":[0E0],"parents":[2147483647],"right_children":[-1],"split_conditions":[-1.6884895E-3],"split_indices":[0],"split_type":[0],"sum_hessian":[9.566142E1],"tree_param":{"num_deleted":"0","num_feature":"6","num_nodes":"1","size_leaf_vector":"1"}},{"base_weights":[-1.0767096E-2],"categories":[],"categories_nodes":[],"categories_segments":[],"categories_sizes":[],"default_left":[0],"id":35,"left_children":[-1],"loss_changes":[0E0],"parents":[2147483647],"right_children":[-1],"split_conditions":[-1.841262E-3],"split_indices":[0],"split_type":[0],"sum_hessian":[9.593081E1],"tree_param":{"num_deleted":"0","num_feature":"6","num_nodes":"1","size_leaf_vector":"1"}},{"base_weights":[-7.6517374E-3],"categories":[],"categories_nodes":[],"categories_segments":[],"categories_sizes":[],"default_left":[0],"id":36,"left_children":[-1],"loss_changes":[0E0],"parents":[2147483647],"right_children":[-1],"split_conditions":[-1.3085101E-3],"split_indices":[0],"split_type":[0],"sum_hessian":[9.587815E1],"tree_param":{"num_deleted":"0","num_feature":"6","num_nodes":"1","size_leaf_vector":"1"}},{"base_weights":[-1.728144E-2],"categories":[],"categories_nodes":[],"categories_segments":[],"categories_sizes":[],"default_left":[0],"id":37,"left_children":[-1],"loss_changes":[0E0],"parents":[2147483647],"right_children":[-1],"split_conditions":[-2.9552684E-3],"split_indices":[0],"split_type":[0],"sum_hessian":[9.459045E1],"tree_param":{"num_deleted":"0","num_feature":"6","num_nodes":"1","size_leaf_vector":"1"}},{"base_weights":[4.7039595E-3],"categories":[],"categories_nodes":[],"categories_segments":[],"categories_sizes":[],"default_left":[0],"id":38,"left_children":[-1],"loss_changes":[0E0],"parents":[2147483647],"right_children":[-1],"split_conditions":[8.044158E-4],"split_indices":[0],"split_type":[0],"sum_hessian":[9.602276E1],"tree_param":{"num_deleted":"0","num_feature":"6","num_nodes":"1","size_leaf_vector":"1"}},{"base_weights":[-5.373321E-3],"categories":[],"categories_nodes":[],"categories_segments":[],"categories_sizes":[],"default_left":[0],"id":39,"left_children":[-1],"loss_changes":[0E0],"parents":[2147483647],"right_children":[-1],"split_conditions":[-9.188821E-4],"split_indices":[0],"split_type":[0],"sum_hessian":[9.60894E1],"tree_param":{"num_deleted":"0","num_feature":"6","num_nodes":"1","size_leaf_vector":"1"}},{"base_weights":[-4.270005E-3],"categories":[],"categories_nodes":[],"categories_segments":[],"categories_sizes":[],"default_left":[0],"id":40,"left_children":[-1],"loss_changes":[0E0],"parents":[2147483647],"right_children":[-1],"split_conditions":[-7.30206E-4],"split_indices":[0],"split_type":[0],"sum_hessian":[9.610091E1],"tree_param":{"num_deleted":"0","num_feature":"6","num_nodes":"1","size_leaf_vector":"1"}},{"base_weights":[-1.0647342E-2],"categories":[],"categories_nodes":[],"categories_segments":[],"categories_sizes":[],"default_left":[0],"id":41,"left_children":[-1],"loss_changes":[0E0],"parents":[2147483647],"right_children":[-1],"split_conditions":[-1.820783E-3],"split_indices":[0],"split_type":[0],"sum_hessian":[9.54717E1],"tree_param":{"num_deleted":"0","num_feature":"6","num_nodes":"1","size_leaf_vector":"1"}},{"base_weights":[1.3918856E-3],"categories":[],"categories_nodes":[],"categories_segments":[],"categories_sizes":[],"default_left":[0],"id":42,"left_children":[-1],"loss_changes":[0E0],"parents":[2147483647],"right_children":[-1],"split_conditions":[2.3802389E-4],"split_indices":[0],"split_type":[0],"sum_hessian":[9.596596E1],"tree_param":{"num_deleted":"0","num_feature":"6","num_nodes":"1","size_leaf_vector":"1"}},{"base_weights":[8.280536E-4],"categories":[],"categories_nodes":[],"categories_segments":[],"categories_sizes":[],"default_left":[0],"id":43,"left_children":[-1],"loss_changes":[0E0],"parents":[2147483647],"right_children":[-1],"split_conditions":[1.4160399E-4],"split_indices":[0],"split_type":[0],"sum_hessian":[9.593767E1],"tree_param":{"num_deleted":"0","num_feature":"6","num_nodes":"1","size_leaf_vector":"1"}},{"base_weights":[-2.4440712E-3],"categories":[],"categories_nodes":[],"categories_segments":[],"categories_sizes":[],"default_left":[0],"id":44,"left_children":[-1],"loss_changes":[0E0],"parents":[2147483647],"right_children":[-1],"split_conditions":[-4.179563E-4],"split_indices":[0],"split_type":[0],"sum_hessian":[9.620308E1],"tree_param":{"num_deleted":"0","num_feature":"6","num_nodes":"1","size_leaf_vector":"1"}},{"base_weights":[-1.9499243E-3],"categories":[],"categories_nodes":[],"categories_segments":[],"categories_sizes":[],"default_left":[0],"id":45,"left_children":[-1],"loss_changes":[0E0],"parents":[2147483647],"right_children":[-1],"split_conditions":[-3.334531E-4],"split_indices":[0],"split_type":[0],"sum_hessian":[9.620892E1],"tree_param":{"num_deleted":"0","num_feature":"6","num_nodes":"1","size_leaf_vector":"1"}},{"base_weights":[-1.6998296E-3],"categories":[],"categories_nodes":[],"categories_segments":[],"categories_sizes":[],"default_left":[0],"id":46,"left_children":[-1],"loss_changes":[0E0],"parents":[2147483647],"right_children":[-1],"split_conditions":[-2.9068484E-4],"split_indices":[0],"split_type":[0],"sum_hessian":[9.6227646E1],"tree_param":{"num_deleted":"0","num_feature":"6","num_nodes":"1","size_leaf_vector":"1"}},{"base_weights":[-1.4043305E-4],"categories":[],"categories_nodes":[],"categories_segments":[],"categories_sizes":[],"default_left":[0],"id":47,"left_children":[-1],"loss_changes":[0E0],"parents":[2147483647],"right_children":[-1],"split_conditions":[-2.4015208E-5],"split_indices":[0],"split_type":[0],"sum_hessian":[9.612176E1],"tree_param":{"num_deleted":"0","num_feature":"6","num_nodes":"1","size_leaf_vector":"1"}},{"base_weights":[-1.0670634E-3],"categories":[],"categories_nodes":[],"categories_segments":[],"categories_sizes":[],"default_left":[0],"id":48,"left_children":[-1],"loss_changes":[0E0],"parents":[2147483647],"right_children":[-1],"split_conditions":[-1.8247662E-4],"split_indices":[0],"split_type":[0],"sum_hessian":[9.620706E1],"tree_param":{"num_deleted":"0","num_feature":"6","num_nodes":"1","size_leaf_vector":"1"}},{"base_weights":[-3.134067E-4],"categories":[],"categories_nodes":[],"categories_segments":[],"categories_sizes":[],"default_left":[0],"id":49,"left_children":[-1],"loss_changes":[0E0],"parents":[2147483647],"right_children":[-1],"split_conditions":[-5.3595122E-5],"split_indices":[0],"split_type":[0],"sum_hessian":[9.616178E1],"tree_param":{"num_deleted":"0","num_feature":"6","num_nodes":"1","size_leaf_vector":"1"}},{"base_weights":[-6.659584E-4],"categories":[],"categories_nodes":[],"categories_segments":[],"categories_sizes":[],"default_left":[0],"id":50,"left_children":[-1],"loss_changes":[0E0],"parents":[2147483647],"right_children":[-1],"split_conditions":[-1.13884365E-4],"split_indices":[0],"split_type":[0],"sum_hessian":[9.619967E1],"tree_param":{"num_deleted":"0","num_feature":"6","num_nodes":"1","size_leaf_vector":"1"}},{"base_weights":[-9.5321634E-4],"categories":[],"categories_nodes":[],"categories_segments":[],"categories_sizes":[],"default_left":[0],"id":51,"left_children":[-1],"loss_changes":[0E0],"parents":[2147483647],"right_children":[-1],"split_conditions":[-1.6300783E-4],"split_indices":[0],"split_type":[0],"sum_hessian":[9.624087E1],"tree_param":{"num_deleted":"0","num_feature":"6","num_nodes":"1","size_leaf_vector":"1"}},{"base_weights":[-6.532599E-4],"categories":[],"categories_nodes":[],"categories_segments":[],"categories_sizes":[],"default_left":[0],"id":52,"left_children":[-1],"loss_changes":[0E0],"parents":[2147483647],"right_children":[-1],"split_conditions":[-1.1171282E-4],"split_indices":[0],"split_type":[0],"sum_hessian":[9.6232765E1],"tree_param":{"num_deleted":"0","num_feature":"6","num_nodes":"1","size_leaf_vector":"1"}},{"base_weights":[-1.2245023E-2,3.538578E-2,-2.0576923E-1,-2.0060389E-1,-1.5780147E-2],"categories":[],"categories_nodes":[],"categories_segments":[],"categories_sizes":[],"default_left":[0,0,0,0,0],"id":53,"left_children":[1,-1,3,-1,-1],"loss_changes":[4.1224504E0,0E0,5.554806E0,0E0,0E0],"parents":[2147483647,0,0,2,2],"right_children":[2,-1,4,-1,-1],"split_conditions":[3.294671E1,3.538578E-2,1.4E1,-2.0060389E-1,-1.5780147E-2],"split_indices":[5,0,1,0,0],"split_type":[0,0,0,0,0],"sum_hessian":[9.519029E1,4.4605057E1,5.058523E1,4.3315144E0,4.6253716E1],"tree_param":{"num_deleted":"0","num_feature":"6","num_nodes":"5","size_leaf_vector":"1"}},{"base_weights":[4.4223843E-6],"categories":[],"categories_nodes":[],"categories_segments":[],"categories_sizes":[],"default_left":[0],"id":54,"left_children":[-1],"loss_changes":[0E0],"parents":[2147483647],"right_children":[-1],"split_conditions":[7.562641E-7],"split_indices":[0],"split_type":[0],"sum_hessian":[9.50047E1],"tree_param":{"num_deleted":"0","num_feature":"6","num_nodes":"1","size_leaf_vector":"1"}},{"base_weights":[-7.672855E-4],"categories":[],"categories_nodes":[],"categories_segments":[],"categories_sizes":[],"default_left":[0],"id":55,"left_children":[-1],"loss_changes":[0E0],"parents":[2147483647],"right_children":[-1],"split_conditions":[-1.3121215E-4],"split_indices":[0],"split_type":[0],"sum_hessian":[9.507553E1],"tree_param":{"num_deleted":"0","num_feature":"6","num_nodes":"1","size_leaf_vector":"1"}},{"base_weights":[-5.1143515E-4],"categories":[],"categories_nodes":[],"categories_segments":[],"categories_sizes":[],"default_left":[0],"id":56,"left_children":[-1],"loss_changes":[0E0],"parents":[2147483647],"right_children":[-1],"split_conditions":[-8.745962E-5],"split_indices":[0],"split_type":[0],"sum_hessian":[9.5067726E1],"tree_param":{"num_deleted":"0","num_feature":"6","num_nodes":"1","size_leaf_vector":"1"}},{"base_weights":[8.019106E-3],"categories":[],"categories_nodes":[],"categories_segments":[],"categories_sizes":[],"default_left":[0],"id":57,"left_children":[-1],"loss_changes":[0E0],"parents":[2147483647],"right_children":[-1],"split_conditions":[1.3713331E-3],"split_indices":[0],"split_type":[0],"sum_hessian":[9.492812E1],"tree_param":{"num_deleted":"0","num_feature":"6","num_nodes":"1","size_leaf_vector":"1"}},{"base_weights":[-1.8607432E-3],"categories":[],"categories_nodes":[],"categories_segments":[],"categories_sizes":[],"default_left":[0],"id":58,"left_children":[-1],"loss_changes":[0E0],"parents":[2147483647],"right_children":[-1],"split_conditions":[-3.182024E-4],"split_indices":[0],"split_type":[0],"sum_hessian":[9.503349E1],"tree_param":{"num_deleted":"0","num_feature":"6","num_nodes":"1","size_leaf_vector":"1"}},{"base_weights":[-1.2772842E-3],"categories":[],"categories_nodes":[],"categories_segments":[],"categories_sizes":[],"default_left":[0],"id":59,"left_children":[-1],"loss_changes":[0E0],"parents":[2147483647],"right_children":[-1],"split_conditions":[-2.1842611E-4],"split_indices":[0],"split_type":[0],"sum_hessian":[9.501829E1],"tree_param":{"num_deleted":"0","num_feature":"6","num_nodes":"1","size_leaf_vector":"1"}},{"base_weights":[-1.3224832E-3],"categories":[],"categories_nodes":[],"categories_segments":[],"categories_sizes":[],"default_left":[0],"id":60,"left_children":[-1],"loss_changes":[0E0],"parents":[2147483647],"right_children":[-1],"split_conditions":[-2.261555E-4],"split_indices":[0],"split_type":[0],"sum_hessian":[9.505023E1],"tree_param":{"num_deleted":"0","num_feature":"6","num_nodes":"1","size_leaf_vector":"1"}},{"base_weights":[-9.132187E-4],"categories":[],"categories_nodes":[],"categories_segments":[],"categories_sizes":[],"default_left":[0],"id":61,"left_children":[-1],"loss_changes":[0E0],"parents":[2147483647],"right_children":[-1],"split_conditions":[-1.5616791E-4],"split_indices":[0],"split_type":[0],"sum_hessian":[9.504015E1],"tree_param":{"num_deleted":"0","num_feature":"6","num_nodes":"1","size_leaf_vector":"1"}},{"base_weights":[-7.48509E-4],"categories":[],"categories_nodes":[],"categories_segments":[],"categories_sizes":[],"default_left":[0],"id":62,"left_children":[-1],"loss_changes":[0E0],"parents":[2147483647],"right_children":[-1],"split_conditions":[-1.2800121E-4],"split_indices":[0],"split_type":[0],"sum_hessian":[9.504404E1],"tree_param":{"num_deleted":"0","num_feature":"6","num_nodes":"1","size_leaf_vector":"1"}},{"base_weights":[-6.688257E-4],"categories":[],"categories_nodes":[],"categories_segments":[],"categories_sizes":[],"default_left":[0],"id":63,"left_children":[-1],"loss_changes":[0E0],"parents":[2147483647],"right_children":[-1],"split_conditions":[-1.143747E-4],"split_indices":[0],"split_type":[0],"sum_hessian":[9.505269E1],"tree_param":{"num_deleted":"0","num_feature":"6","num_nodes":"1","size_leaf_vector":"1"}},{"base_weights":[-4.7340195E-4],"categories":[],"categories_nodes":[],"categories_segments":[],"categories_sizes":[],"default_left":[0],"id":64,"left_children":[-1],"loss_changes":[0E0],"parents":[2147483647],"right_children":[-1],"split_conditions":[-8.095563E-5],"split_indices":[0],"split_type":[0],"sum_hessian":[9.5048645E1],"tree_param":{"num_deleted":"0","num_feature":"6","num_nodes":"1","size_leaf_vector":"1"}},{"base_weights":[2.1749393E-4],"categories":[],"categories_nodes":[],"categories_segments":[],"categories_sizes":[],"default_left":[0],"id":65,"left_children":[-1],"loss_changes":[0E0],"parents":[2147483647],"right_children":[-1],"split_conditions":[3.719325E-5],"split_indices":[0],"split_type":[0],"sum_hessian":[9.499512E1],"tree_param":{"num_deleted":"0","num_feature":"6","num_nodes":"1","size_leaf_vector":"1"}},{"base_weights":[-7.154247E-4],"categories":[],"categories_nodes":[],"categories_segments":[],"categories_sizes":[],"default_left":[0],"id":66,"left_children":[-1],"loss_changes":[0E0],"parents":[2147483647],"right_children":[-1],"split_conditions":[-1.2234351E-4],"split_indices":[0],"split_type":[0],"sum_hessian":[9.507723E1],"tree_param":{"num_deleted":"0","num_feature":"6","num_nodes":"1","size_leaf_vector":"1"}},{"base_weights":[-3.596263E-4],"categories":[],"categories_nodes":[],"categories_segments":[],"categories_sizes":[],"default_left":[0],"id":67,"left_children":[-1],"loss_changes":[0E0],"parents":[2147483647],"right_children":[-1],"split_conditions":[-6.149906E-5],"split_indices":[0],"split_type":[0],"sum_hessian":[9.505917E1],"tree_param":{"num_deleted":"0","num_feature":"6","num_nodes":"1","size_leaf_vector":"1"}},{"base_weights":[-2.8882053E-4],"categories":[],"categories_nodes":[],"categories_segments":[],"categories_sizes":[],"default_left":[0],"id":68,"left_children":[-1],"loss_changes":[0E0],"parents":[2147483647],"right_children":[-1],"split_conditions":[-4.939069E-5],"split_indices":[0],"split_type":[0],"sum_hessian":[9.5060135E1],"tree_param":{"num_deleted":"0","num_feature":"6","num_nodes":"1","size_leaf_vector":"1"}},{"base_weights":[7.231172E-3],"categories":[],"categories_nodes":[],"categories_segments":[],"categories_sizes":[],"default_left":[0],"id":69,"left_children":[-1],"loss_changes":[0E0],"parents":[2147483647],"right_children":[-1],"split_conditions":[1.23659E-3],"split_indices":[0],"split_type":[0],"sum_hessian":[9.485356E1],"tree_param":{"num_deleted":"0","num_feature":"6","num_nodes":"1","size_leaf_vector":"1"}},{"base_weights":[-1.5179989E-3],"categories":[],"categories_nodes":[],"categories_segments":[],"categories_sizes":[],"default_left":[0],"id":70,"left_children":[-1],"loss_changes":[0E0],"parents":[2147483647],"right_children":[-1],"split_conditions":[-2.595903E-4],"split_indices":[0],"split_type":[0],"sum_hessian":[9.502639E1],"tree_param":{"num_deleted":"0","num_feature":"6","num_nodes":"1","size_leaf_vector":"1"}},{"base_weights":[-1.4066271E-3],"categories":[],"categories_nodes":[],"categories_segments":[],"categories_sizes":[],"default_left":[0],"id":71,"left_children":[-1],"loss_changes":[0E0],"parents":[2147483647],"right_children":[-1],"split_conditions":[-2.4054482E-4],"split_indices":[0],"split_type":[0],"sum_hessian":[9.504873E1],"tree_param":{"num_deleted":"0","num_feature":"6","num_nodes":"1","size_leaf_vector":"1"}},{"base_weights":[-9.7477314E-4],"categories":[],"categories_nodes":[],"categories_segments":[],"categories_sizes":[],"default_left":[0],"id":72,"left_children":[-1],"loss_changes":[0E0],"parents":[2147483647],"right_children":[-1],"split_conditions":[-1.6669423E-4],"split_indices":[0],"split_type":[0],"sum_hessian":[9.5038055E1],"tree_param":{"num_deleted":"0","num_feature":"6","num_nodes":"1","size_leaf_vector":"1"}},{"base_weights":[-7.2783517E-4],"categories":[],"categories_nodes":[],"categories_segments":[],"categories_sizes":[],"default_left":[0],"id":73,"left_children":[-1],"loss_changes":[0E0],"parents":[2147483647],"right_children":[-1],"split_conditions":[-1.244658E-4],"split_indices":[0],"split_type":[0],"sum_hessian":[9.503641E1],"tree_param":{"num_deleted":"0","num_feature":"6","num_nodes":"1","size_leaf_vector":"1"}},{"base_weights":[-6.0306827E-4],"categories":[],"categories_nodes":[],"categories_segments":[],"categories_sizes":[],"default_left":[0],"id":74,"left_children":[-1],"loss_changes":[0E0],"parents":[2147483647],"right_children":[-1],"split_conditions":[-1.03129634E-4],"split_indices":[0],"split_type":[0],"sum_hessian":[9.503977E1],"tree_param":{"num_deleted":"0","num_feature":"6","num_nodes":"1","size_leaf_vector":"1"}},{"base_weights":[-4.5161047E-5],"categories":[],"categories_nodes":[],"categories_segments":[],"categories_sizes":[],"default_left":[0],"id":75,"left_children":[-1],"loss_changes":[0E0],"parents":[2147483647],"right_children":[-1],"split_conditions":[-7.722911E-6],"split_indices":[0],"split_type":[0],"sum_hessian":[9.500311E1],"tree_param":{"num_deleted":"0","num_feature":"6","num_nodes":"1","size_leaf_vector":"1"}},{"base_weights":[-6.96216E-4],"categories":[],"categories_nodes":[],"categories_segments":[],"categories_sizes":[],"default_left":[0],"id":76,"left_children":[-1],"loss_changes":[0E0],"parents":[2147483647],"right_children":[-1],"split_conditions":[-1.1905867E-4],"split_indices":[0],"split_type":[0],"sum_hessian":[9.506254E1],"tree_param":{"num_deleted":"0","num_feature":"6","num_nodes":"1","size_leaf_vector":"1"}},{"base_weights":[-4.842028E-4],"categories":[],"categories_nodes":[],"categories_segments":[],"categories_sizes":[],"default_left":[0],"id":77,"left_children":[-1],"loss_changes":[0E0],"parents":[2147483647],"right_children":[-1],"split_conditions":[-8.280267E-5],"split_indices":[0],"split_type":[0],"sum_hessian":[9.5057465E1],"tree_param":{"num_deleted":"0","num_feature":"6","num_nodes":"1","size_leaf_vector":"1"}},{"base_weights":[-5.12542E-4],"categories":[],"categories_nodes":[],"categories_segments":[],"categories_sizes":[],"default_left":[0],"id":78,"left_children":[-1],"loss_changes":[0E0],"parents":[2147483647],"right_children":[-1],"split_conditions":[-8.764891E-5],"split_indices":[0],"split_type":[0],"sum_hessian":[9.5070694E1],"tree_param":{"num_deleted":"0","num_feature":"6","num_nodes":"1","size_leaf_vector":"1"}},{"base_weights":[-4.3353086E-4],"categories":[],"categories_nodes":[],"categories_segments":[],"categories_sizes":[],"default_left":[0],"id":79,"left_children":[-1],"loss_changes":[0E0],"parents":[2147483647],"right_children":[-1],"split_conditions":[-7.4137344E-5],"split_indices":[0],"split_type":[0],"sum_hessian":[9.507423E1],"tree_param":{"num_deleted":"0","num_feature":"6","num_nodes":"1","size_leaf_vector":"1"}},{"base_weights":[-1.5816311E-4],"categories":[],"categories_nodes":[],"categories_segments":[],"categories_sizes":[],"default_left":[0],"id":80,"left_children":[-1],"loss_changes":[0E0],"parents":[2147483647],"right_children":[-1],"split_conditions":[-2.7047194E-5],"split_indices":[0],"split_type":[0],"sum_hessian":[9.5057594E1],"tree_param":{"num_deleted":"0","num_feature":"6","num_nodes":"1","size_leaf_vector":"1"}},{"base_weights":[6.9613187E-3],"categories":[],"categories_nodes":[],"categories_segments":[],"categories_sizes":[],"default_left":[0],"id":81,"left_children":[-1],"loss_changes":[0E0],"parents":[2147483647],"right_children":[-1],"split_conditions":[1.1904428E-3],"split_indices":[0],"split_type":[0],"sum_hessian":[9.4880196E1],"tree_param":{"num_deleted":"0","num_feature":"6","num_nodes":"1","size_leaf_vector":"1"}},{"base_weights":[-1.51383E-3],"categories":[],"categories_nodes":[],"categories_segments":[],"categories_sizes":[],"default_left":[0],"id":82,"left_children":[-1],"loss_changes":[0E0],"parents":[2147483647],"right_children":[-1],"split_conditions":[-2.588774E-4],"split_indices":[0],"split_type":[0],"sum_hessian":[9.503903E1],"tree_param":{"num_deleted":"0","num_feature":"6","num_nodes":"1","size_leaf_vector":"1"}},{"base_weights":[-1.351075E-3],"categories":[],"categories_nodes":[],"categories_segments":[],"categories_sizes":[],"default_left":[0],"id":83,"left_children":[-1],"loss_changes":[0E0],"parents":[2147483647],"right_children":[-1],"split_conditions":[-2.3104495E-4],"split_indices":[0],"split_type":[0],"sum_hessian":[9.505634E1],"tree_param":{"num_deleted":"0","num_feature":"6","num_nodes":"1","size_leaf_vector":"1"}},{"base_weights":[-1.0428388E-3],"categories":[],"categories_nodes":[],"categories_segments":[],"categories_sizes":[],"default_left":[0],"id":84,"left_children":[-1],"loss_changes":[0E0],"parents":[2147483647],"right_children":[-1],"split_conditions":[-1.7833401E-4],"split_indices":[0],"split_type":[0],"sum_hessian":[9.505622E1],"tree_param":{"num_deleted":"0","num_feature":"6","num_nodes":"1","size_leaf_vector":"1"}},{"base_weights":[-8.3599554E-4],"categories":[],"categories_nodes":[],"categories_segments":[],"categories_sizes":[],"default_left":[0],"id":85,"left_children":[-1],"loss_changes":[0E0],"parents":[2147483647],"right_children":[-1],"split_conditions":[-1.4296212E-4],"split_indices":[0],"split_type":[0],"sum_hessian":[9.505917E1],"tree_param":{"num_deleted":"0","num_feature":"6","num_nodes":"1","size_leaf_vector":"1"}},{"base_weights":[1.9056245E-3],"categories":[],"categories_nodes":[],"categories_segments":[],"categories_sizes":[],"default_left":[0],"id":86,"left_children":[-1],"loss_changes":[0E0],"parents":[2147483647],"right_children":[-1],"split_conditions":[3.2587748E-4],"split_indices":[0],"split_type":[0],"sum_hessian":[9.487423E1],"tree_param":{"num_deleted":"0","num_feature":"6","num_nodes":"1","size_leaf_vector":"1"}},{"base_weights":[2.225714E-3],"categories":[],"categories_nodes":[],"categories_segments":[],"categories_sizes":[],"default_left":[0],"id":87,"left_children":[-1],"loss_changes":[0E0],"parents":[2147483647],"right_children":[-1],"split_conditions":[3.806154E-4],"split_indices":[0],"split_type":[0],"sum_hessian":[9.483405E1],"tree_param":{"num_deleted":"0","num_feature":"6","num_nodes":"1","size_leaf_vector":"1"}},{"base_weights":[-1.4392051E-3],"categories":[],"categories_nodes":[],"categories_segments":[],"categories_sizes":[],"default_left":[0],"id":88,"left_children":[-1],"loss_changes":[0E0],"parents":[2147483647],"right_children":[-1],"split_conditions":[-2.4611593E-4],"split_indices":[0],"split_type":[0],"sum_hessian":[9.504518E1],"tree_param":{"num_deleted":"0","num_feature":"6","num_nodes":"1","size_leaf_vector":"1"}},{"base_weights":[-1.0279978E-3],"categories":[],"categories_nodes":[],"categories_segments":[],"categories_sizes":[],"default_left":[0],"id":89,"left_children":[-1],"loss_changes":[0E0],"parents":[2147483647],"right_children":[-1],"split_conditions":[-1.7579609E-4],"split_indices":[0],"split_type":[0],"sum_hessian":[9.5037346E1],"tree_param":{"num_deleted":"0","num_feature":"6","num_nodes":"1","size_leaf_vector":"1"}},{"base_weights":[-9.3770004E-4],"categories":[],"categories_nodes":[],"categories_segments":[],"categories_sizes":[],"default_left":[0],"id":90,"left_children":[-1],"loss_changes":[0E0],"parents":[2147483647],"right_children":[-1],"split_conditions":[-1.6035442E-4],"split_indices":[0],"split_type":[0],"sum_hessian":[9.5050896E1],"tree_param":{"num_deleted":"0","num_feature":"6","num_nodes":"1","size_leaf_vector":"1"}},{"base_weights":[-2.9509019E-3],"categories":[],"categories_nodes":[],"categories_segments":[],"categories_sizes":[],"default_left":[0],"id":91,"left_children":[-1],"loss_changes":[0E0],"parents":[2147483647],"right_children":[-1],"split_conditions":[-5.046285E-4],"split_indices":[0],"split_type":[0],"sum_hessian":[9.46041E1],"tree_param":{"num_deleted":"0","num_feature":"6","num_nodes":"1","size_leaf_vector":"1"}},{"base_weights":[1.2144239E-3],"categories":[],"categories_nodes":[],"categories_segments":[],"categories_sizes":[],"default_left":[0],"id":92,"left_children":[-1],"loss_changes":[0E0],"parents":[2147483647],"right_children":[-1],"split_conditions":[2.0767648E-4],"split_indices":[0],"split_type":[0],"sum_hessian":[9.495393E1],"tree_param":{"num_deleted":"0","num_feature":"6","num_nodes":"1","size_leaf_vector":"1"}},{"base_weights":[-6.3301454E-4],"categories":[],"categories_nodes":[],"categories_segments":[],"categories_sizes":[],"default_left":[0],"id":93,"left_children":[-1],"loss_changes":[0E0],"parents":[2147483647],"right_children":[-1],"split_conditions":[-1.0825069E-4],"split_indices":[0],"split_type":[0],"sum_hessian":[9.507995E1],"tree_param":{"num_deleted":"0","num_feature":"6","num_nodes":"1","size_leaf_vector":"1"}},{"base_weights":[2.368843E-3],"categories":[],"categories_nodes":[],"categories_segments":[],"categories_sizes":[],"default_left":[0],"id":94,"left_children":[-1],"loss_changes":[0E0],"parents":[2147483647],"right_children":[-1],"split_conditions":[4.0509165E-4],"split_indices":[0],"split_type":[0],"sum_hessian":[9.484657E1],"tree_param":{"num_deleted":"0","num_feature":"6","num_nodes":"1","size_leaf_vector":"1"}},{"base_weights":[-6.7476515E-4],"categories":[],"categories_nodes":[],"categories_segments":[],"categories_sizes":[],"default_left":[0],"id":95,"left_children":[-1],"loss_changes":[0E0],"parents":[2147483647],"right_children":[-1],"split_conditions":[-1.15390394E-4],"split_indices":[0],"split_type":[0],"sum_hessian":[9.504622E1],"tree_param":{"num_deleted":"0","num_feature":"6","num_nodes":"1","size_leaf_vector":"1"}},{"base_weights":[-6.68277E-4],"categories":[],"categories_nodes":[],"categories_segments":[],"categories_sizes":[],"default_left":[0],"id":96,"left_children":[-1],"loss_changes":[0E0],"parents":[2147483647],"right_children":[-1],"split_conditions":[-1.1428086E-4],"split_indices":[0],"split_type":[0],"sum_hessian":[9.506023E1],"tree_param":{"num_deleted":"0","num_feature":"6","num_nodes":"1","size_leaf_vector":"1"}},{"base_weights":[-1.0320656E-2],"categories":[],"categories_nodes":[],"categories_segments":[],"categories_sizes":[],"default_left":[0],"id":97,"left_children":[-1],"loss_changes":[0E0],"parents":[2147483647],"right_children":[-1],"split_conditions":[-1.7649172E-3],"split_indices":[0],"split_type":[0],"sum_hessian":[9.417826E1],"tree_param":{"num_deleted":"0","num_feature":"6","num_nodes":"1","size_leaf_vector":"1"}},{"base_weights":[1.0918891E-3],"categories":[],"categories_nodes":[],"categories_segments":[],"categories_sizes":[],"default_left":[0],"id":98,"left_children":[-1],"loss_changes":[0E0],"parents":[2147483647],"right_children":[-1],"split_conditions":[1.8672203E-4],"split_indices":[0],"split_type":[0],"sum_hessian":[9.5130974E1],"tree_param":{"num_deleted":"0","num_feature":"6","num_nodes":"1","size_leaf_vector":"1"}},{"base_weights":[8.6204533E-4],"categories":[],"categories_nodes":[],"categories_segments":[],"categories_sizes":[],"default_left":[0],"id":99,"left_children":[-1],"loss_changes":[0E0],"parents":[2147483647],"right_children":[-1],"split_conditions":[1.4741684E-4],"split_indices":[0],"split_type":[0],"sum_hessian":[9.512918E1],"tree_param":{"num_deleted":"0","num_feature":"6","num_nodes":"1","size_leaf_vector":"1"}},{"base_weights":[4.2654932E-3],"categories":[],"categories_nodes":[],"categories_segments":[],"categories_sizes":[],"default_left":[0],"id":100,"left_children":[-1],"loss_changes":[0E0],"parents":[2147483647],"right_children":[-1],"split_conditions":[7.294344E-4],"split_indices":[0],"split_type":[0],"sum_hessian":[9.489992E1],"tree_param":{"num_deleted":"0","num_feature":"6","num_nodes":"1","size_leaf_vector":"1"}}]},"name":"gbtree"},"learner_model_param":{"base_score":"[5E-1]","boost_from_average":"1","num_class":"0","num_feature":"6","num_target":"1"},"objective":{"name":"binary:logistic","reg_loss_param":{"scale_pos_weight":"24.8064518"}}},"version":[3,3,0]}